1 -86 49 2 -85 -26 -39 -3 -46 47
-61 -54 -51 5 23 -60 -69 28 31 29
36 35 -59 -5 7 26 66 -56 50 37
0 -83 -57 -50 21 10 36 -1 6 41
-54 97 4 25 68 -31 43 67 -78 -97
78 -1 31 -73 -51 -93 -24 -26 70 12
22 90 25 33 96 -92 -39 -21 -43 -55
41 -64 16 24 0 9 -101 49 -1 43
17 13 28 -63 12 -27 39 -71 6 -69
-88 98 0 39 40 -42 -71 67 -69 -4
30 54 19 47 -78 25 21 -14 43 -83
-97 -1 98 4 -67 54 -20 48 8 -127
18 41 28 39 30 -121 38 51 29 -16
-37 -20 59 -6 8 -3 35 -94 18 45
17 55 35 -8 14 -87 -71 33 26 42
49 28 -86 -29 -3 58 43 44 -69 20
-99 62 -34 38 -115 89 -41 -56 -77 13
-62 -56 0 -43 55 -12 29 -99 20 5
-101 8 -10 48 36 32 -42 -39 59 35
-36 -43 47 52 -105 51 32 42 -47 -118
-4 -71 -30 -5 17 52 -28 -66 51 -46
1 -40 -93 44 10 66 -5 43 -14 38
-13 -22 -27 -27 45 46 -54 75 4 -55
-30 -77 34 -62 9 17 -73 23 -105 14
63 64 -13 -39 8 20 52 2 -21 -94
-71 16 2 78 9 -83 -24 -3 35 -38
4 -54 77 17 46 -36 52 -30 -59 -97
-64 53 43 -98 35 0 30 42 -4 55
61 24 47 34 -125 -14 -83 4 -36 -8
12 -40 -4 -14 -31 -37 33 28 18 24
0 38 8 44 -34 -109 -33 8 -32 34
45 -48 42 40 -118 14 25 -54 -10 -34
