6 1 4 -2 10 -10 7 -6 3 8 12 -1 -1 -11 -4 -2 4 11 7 -7 -2 -5 1 9 -6 -11 -2 10 5 10 -5 -3
-4 7 9 -12 1 -6 -2 11 -3 9 -8 -13 -7 13 4 -12 -1 1 -6 11 -1 -8 10 5 -9 7 -11 -9 -2 -1 -9 4
1 -8 -4 -11 12 -5 -3 10 4 9 4 -9 -9 -11 -10 7 -3 6 6 1 9 -5 -7 1 -9 -5 -5 11 -10 12 0 -8
-11 -3 11 -7 -6 -6 12 9 -11 -7 -12 -4 -7 0 7 -12 11 4 5 11 8 8 -4 -2 -1 0 -12 -8 6 5 5 8
-2 -6 11 -6 -4 -5 -9 9 1 -5 0 -12 -11 -2 -9 8 11 5 2 0 2 -10 -10 12 1 -10 -3 12 -9 4 4 -12
3 3 12 6 -8 2 -9 -10 -3 -10 0 -10 7 -2 -8 -6 12 -2 -8 -8 -1 -6 4 -2 9 -9 -10 -4 -6 4 0 -1
-7 2 0 4 2 -5 10 -6 -7 -3 -2 -4 -1 4 -8 2 11 12 -3 -8 2 4 -3 1 5 5 -3 -6 -6 -8 -9 4
12 -1 5 10 -7 7 9 -11 -1 9 12 6 -2 10 -2 -2 5 5 4 9 3 9 -2 -6 5 0 5 0 6 5 -6 10
10 -1 -11 -3 8 -11 -7 -8 8 0 7 2 12 3 1 4 11 -6 0 -4 -12 2 -3 12 -6 4 -7 -11 4 -6 3 -11
-6 -9 6 10 -7 -8 -12 -12 3 5 0 -10 11 2 9 -11 -10 7 -6 9 -10 -7 11 7 -8 -7 4 -5 0 -3 -10 -12
-2 -10 1 -8 -4 -6 -7 5 -6 9 -7 -12 5 6 3 2 -7 -4 -12 11 0 12 1 -7 6 -7 12 -3 9 -5 -12 7
-3 -7 -3 5 9 6 12 10 2 3 1 8 11 3 -5 3 8 -3 -5 -1 6 5 9 5 9 3 -1 0 -3 8 8 5
0 -19 10 9 5 7 -11 -4 2 5 13 8 -6 -3 5 13 13 -9 -17 16 -12 14 -13 -13 23 -14 -5 -1 -7 26 -26 9
16 -25 5 5 1 3 -7 -4 22 -2 4 3 -1 11 -3 15 8 13 -3 17 -22 9 9 -13 7 2 -25 6 21 12 -23 7
2 -16 -1 -15 -15 1 1 19 14 0 15 -2 6 6 -8 5 3 5 12 19 -11 -1 -11 24 -22 10 14 -2 14 -13 17 -4
-7 -3 7 8 0 -6 5 0 -9 -1 3 -4 10 6 2 -13 -4 0 10 13 -4 -14 -3 -5 0 3 7 -4 11 6 -3 -3
-5 -4 0 -1 -12 3 -6 -7 0 10 2 11 1 -6 -11 -8 1 -8 9 -3 -12 7 -6 -12 -7 4 -7 -12 -2 -2 2 1
12 8 -3 1 12 -10 3 -2 0 -6 10 2 -12 10 -8 9 -9 -6 7 -10 1 -3 -6 -3 5 -6 -9 9 1 -11 -2 -7
10 -10 3 2 2 -9 -1 -5 -4 -5 -3 -13 -11 12 2 -11 -4 -6 4 1 -5 10 -1 -9 -7 7 -9 9 12 -11 -6 10
-2 9 -10 -7 -11 0 0 8 11 3 -3 5 -12 6 -12 -8 0 -12 -6 8 -3 -6 -5 10 8 6 11 -9 10 5 -7 4
4 12 4 6 -7 -11 7 2 7 -3 6 -11 2 -9 -6 -11 2 -3 -12 12 -1 -7 2 -5 -9 -8 -10 -10 3 4 7 -6
7 -5 -3 -8 -4 9 3 6 12 -1 6 -10 7 -3 12 0 -6 3 1 -6 2 11 11 8 -2 -2 3 -3 -1 3 13 6
-4 -9 -8 -11 2 -5 8 -6 5 1 -6 1 5 -6 5 4 -5 6 2 -2 7 -11 -10 11 4 -6 -9 6 -3 11 8 -7
-3 4 -7 1 -3 -2 1 6 3 1 -2 -11 10 -5 12 -7 1 -12 -11 6 0 -5 9 1 -8 0 1 -2 -11 1 -12 13
7 -8 -1 5 1 12 0 2 7 -8 2 5 11 3 11 -6 11 3 -10 -11 -10 6 8 -4 8 12 -4 -6 3 -10 -8 -11
-3 3 -4 -8 8 6 -8 -8 10 1 9 -12 0 2 -8 11 -11 -5 -10 -4 11 10 3 -11 -7 -5 -3 -12 4 -5 -3 7
-6 4 3 -6 5 11 2 -8 -1 3 9 1 -1 -1 6 -5 6 -7 -11 10 -1 -7 7 -3 -11 -12 5 5 -5 11 -6 11
7 -3 10 -8 -9 1 -8 12 10 2 5 -8 -1 4 7 9 2 -12 3 8 1 6 -8 0 5 9 -7 8 5 7 1 11
10 1 1 12 3 -6 12 -11 -3 -12 -7 9 12 -5 6 0 8 -10 -9 6 12 -2 -8 5 12 7 10 -3 3 -5 -13 6
-5 5 -11 -9 12 -6 7 2 -6 -7 -10 0 5 12 -1 1 -7 5 -12 -2 -6 -9 -13 -3 -3 -10 0 -6 12 -4 8 9
-6 7 -2 -5 4 3 3 -1 -6 8 7 11 7 -7 -3 -11 1 2 -6 -12 -10 -1 -12 -5 -3 9 7 -12 2 -6 -1 9
11 12 12 0 3 -7 4 -5 0 -6 2 3 0 9 -13 1 3 3 -11 -12 -2 -1 -7 5 8 -10 11 -4 -4 6 3 -8
9 -6 4 2 12 -12 -9 -11 5 -2 8 4 -10 1 10 -4 1 -8 5 3 4 -2 -12 -18 6 -9 3 6 1 1 -1 11
-5 -14 15 21 -6 3 -10 -17 13 5 1 10 2 13 -11 5 0 -17 2 9 -2 -1 -6 -7 25 -7 -14 -3 -8 20 2 3
1 -32 -5 19 -11 0 -20 -20 30 5 12 3 13 14 7 25 14 -13 -15 21 5 -22 -11 -11 31 -19 6 10 -6 11 -17 15
13 -34 13 28 -18 6 -9 -18 31 -14 10 -6 -2 19 -1 22 7 -20 -15 28 -15 -9 -4 -22 35 -37 -3 10 -7 14 -6 19
1 -17 -8 19 -1 18 -19 -14 28 -20 -7 20 6 8 -2 17 12 5 -10 28 -16 -11 -10 -29 17 -17 -4 3 -6 21 -5 23
-7 -18 -8 16 7 -10 -25 -6 34 -4 20 12 2 19 -4 10 20 -8 -23 44 -10 -9 -26 -3 12 10 -7 3 7 12 -10 14
4 -39 4 21 29 -4 -13 -9 29 -8 -1 3 10 20 -8 29 -1 4 -13 33 -27 16 -10 -27 38 -11 -2 -8 0 41 -15 23
-7 -33 33 17 38 21 -26 -2 30 -29 16 -16 -4 -15 -18 42 5 -35 -19 0 13 -11 -7 -32 52 -19 -19 10 8 51 -15 34
-2 -29 14 28 9 12 -27 -11 32 -24 28 -3 3 16 -13 38 11 -28 -26 20 2 -17 -7 -53 60 -15 -21 7 15 45 -15 16
5 -13 7 29 31 7 -4 3 39 -33 6 -14 18 -8 -13 43 25 -12 -19 15 0 10 -21 -41 38 -5 -21 -15 32 26 -18 34
-17 1 25 -4 -12 -2 -12 -4 -6 22 11 -21 24 -21 26 -1 23 8 15 -22 -8 7 14 -5 -2 -23 -21 24 9 -3 20 -1
11 -38 11 -20 -18 29 -26 5 53 -3 31 -35 5 -10 21 43 21 -23 -17 3 -34 -26 -4 -20 39 -17 -20 12 30 7 42 23
31 -28 1 -20 -34 38 -41 10 37 -16 24 19 12 13 28 25 15 -11 -10 63 -23 -56 -14 -16 12 -28 24 -1 43 40 29 29
37 -43 2 3 -35 27 -20 3 26 -31 13 22 18 26 7 36 10 -18 -15 54 -13 -33 -4 -32 32 -23 22 -27 21 38 12 26
-12 -18 51 38 -23 -10 -45 -35 42 -24 21 -7 15 38 -4 40 21 23 -59 63 -51 -14 -22 -49 40 1 25 8 -16 64 -11 15
3 -11 26 29 36 -29 -31 -17 37 -34 -5 -5 -7 24 -26 43 26 -5 -61 27 -41 -4 -5 -41 37 -4 13 18 -39 39 -11 4
1 -23 25 27 24 -32 -13 -8 37 -29 6 -12 -10 33 -16 36 4 -4 -42 26 -27 -17 -14 -34 36 -4 19 9 -26 37 -21 9
-18 -14 15 18 1 -17 -29 -16 16 -4 23 10 -16 12 -12 24 -6 -8 -30 33 -28 0 -2 -36 22 20 -7 12 -20 18 -2 10
15 -16 15 21 -29 5 -24 -31 19 9 4 5 3 32 -9 17 6 -28 -16 33 -19 -15 -16 -17 36 6 6 12 2 29 -1 19
15 -14 7 8 -20 -3 -1 -29 13 6 -9 4 7 26 -8 7 -12 -15 -4 14 -21 -13 -14 -9 11 7 10 13 -9 29 -20 0
-3 12 -8 0 5 9 6 2 10 7 10 -12 -7 -12 9 11 -7 10 -4 -5 11 13 11 8 3 -11 -9 -12 7 -12 7 -7
3 -11 -2 -2 -11 -9 -7 -9 2 -7 -8 -4 3 10 -8 -9 -10 11 -9 -11 -12 -9 -11 2 0 -4 -9 -4 -2 -2 5 -11
3 3 10 11 -4 1 1 3 9 -7 4 -5 -7 3 -8 -9 -9 1 -12 -7 -1 10 -6 -3 10 -7 -9 -10 9 3 7 0
2 7 -10 1 9 -8 -10 10 0 10 6 7 10 11 7 8 -5 2 12 -12 5 -4 6 12 7 0 1 -5 0 -8 4 -11
9 9 -10 -6 8 -7 11 5 2 -10 -5 6 3 -6 -1 10 -4 -6 -1 6 9 -12 -12 11 4 5 -6 -11 -3 -6 -3 -1
9 10 -4 -4 6 2 1 8 -5 6 0 1 9 10 0 -12 2 -8 -7 3 -2 0 -4 10 11 3 -1 5 5 -2 6 4
-11 -11 10 -2 1 1 -6 -3 3 -3 11 -11 9 -5 -2 0 6 2 -17 -4 -11 -13 -2 -11 -1 8 14 0 9 -3 -6 -6
-8 -12 8 -19 -2 12 -20 8 25 -17 -9 3 2 -11 10 12 20 -23 4 19 -20 -11 -12 -13 15 9 -25 -7 20 24 0 -3
8 -8 12 18 3 8 -9 -2 8 2 -3 -5 -2 -18 -23 13 8 -7 -22 19 -9 -10 -19 -6 26 -11 -13 5 13 16 -6 13
-2 -26 20 17 8 -8 -22 -27 50 -17 8 17 0 30 2 41 9 2 -14 22 -24 -13 -23 -20 21 -22 4 16 5 32 -20 22
-15 -25 0 37 14 1 -26 -36 39 -27 -11 8 -1 39 9 43 20 2 -27 45 -15 -20 -35 -42 42 -33 -5 9 -7 49 -25 20
-4 -54 1 37 12 20 -15 -34 58 -25 10 3 8 32 4 49 38 -12 -31 39 -23 -2 -42 -45 33 -14 -13 4 2 35 -31 44
27 -44 -2 26 29 15 -39 -51 39 -16 -4 19 1 47 -11 12 12 -10 -24 52 -38 8 -34 -30 19 -9 22 8 15 44 -37 37
30 -48 -3 1 71 7 -45 -53 30 -9 18 33 16 58 -6 -10 -8 8 -34 62 -38 -20 -53 -15 -12 18 38 31 16 9 -17 42
32 -48 -16 -5 47 6 -38 -50 47 -8 26 14 1 72 10 14 -10 12 -28 63 -50 -45 -50 -25 1 27 63 17 8 32 -2 63
14 -80 0 22 68 2 -68 -73 49 -28 11 -13 3 61 2 28 6 32 -43 92 -43 -44 -72 -19 38 29 54 13 9 58 3 45
22 -84 -8 14 19 12 -46 -31 43 -17 12 -14 41 55 11 25 21 12 -52 57 -70 -32 -78 -21 25 8 50 38 52 35 0 50
10 -57 -8 -9 -1 27 -28 -37 38 -19 21 -35 47 4 8 38 37 15 -58 0 -53 -35 -50 -26 15 29 16 55 49 14 21 -3
-6 -71 -6 21 8 -27 -7 -39 35 -6 9 -29 58 41 4 29 81 55 -49 9 -59 -35 -36 -28 31 30 22 68 32 16 10 10
-23 -74 21 -4 1 7 -5 -49 38 28 24 -45 28 10 41 35 84 13 -11 10 -71 -31 -22 -46 23 46 -14 55 11 -3 27 -31
-23 -52 20 4 -28 12 -5 -30 8 11 44 -33 18 10 41 33 84 -6 -27 29 -43 -33 -15 -20 7 26 -11 17 13 10 -3 -4
13 -35 25 25 -31 11 17 -9 20 -38 17 11 3 22 -3 38 55 12 -23 40 -8 -18 -6 -5 11 17 6 0 -4 9 -16 6
11 -22 27 12 -2 -14 -19 -48 22 -74 33 -1 -6 8 -13 34 58 13 5 68 3 -14 5 -31 17 9 -13 7 3 24 -30 -1
-13 -64 31 26 26 -15 -23 -43 12 -42 3 -43 11 10 -28 55 58 1 -5 39 -9 -12 2 -54 20 -4 -17 17 -14 6 -38 3
16 -35 26 21 51 -9 -30 -35 9 -35 15 -35 -10 11 1 15 38 -5 -1 42 -31 -19 -16 -47 28 -8 15 13 -17 17 -14 2
21 -29 40 20 40 11 -13 -27 10 -18 9 -24 -1 32 -25 4 12 29 -32 48 -25 -29 -17 -55 17 -22 20 28 -15 33 1 5
13 -20 52 41 18 -2 -20 -30 22 -26 -1 -36 1 22 -12 27 15 17 -20 32 -26 -21 -21 -70 31 -20 9 31 -26 31 -10 29
33 -42 55 36 8 4 -48 -43 28 -16 -1 -23 5 37 -23 55 26 -3 -15 44 -37 -29 -36 -63 40 -16 7 23 -19 50 2 25
12 -32 21 -4 9 26 -23 -21 22 0 -5 -2 7 42 -7 3 -2 8 -22 27 -42 -36 -11 -5 15 6 29 20 -8 13 26 15
7 3 5 -7 7 1 -9 5 3 -11 3 3 0 4 -14 0 -7 -12 7 5 -4 0 0 2 -8 3 7 18 13 -8 3 10
1 11 8 12 -8 5 2 -7 -6 6 -11 12 -1 -11 -5 -12 11 1 -9 -12 12 3 5 -2 9 9 -9 5 9 1 11 7
7 -5 9 9 -4 -4 -5 6 -3 7 2 3 7 12 -10 -11 -2 -3 -7 -3 7 5 -8 8 -12 9 -9 12 7 -10 7 9
-10 -9 -5 3 1 8 8 -11 10 8 -12 -8 -4 0 0 4 9 -2 11 -1 -1 8 -7 -6 -10 -9 9 -10 -9 4 12 11
-5 -1 10 7 2 -10 -3 2 -6 4 7 -5 -7 6 2 -9 -6 -12 -1 12 -2 11 -11 5 4 -6 -1 -11 1 1 -3 -4
0 -26 7 -3 26 0 -3 1 7 9 22 -19 7 -16 15 -7 7 -20 -11 -5 -13 -23 -6 -3 10 -4 -24 33 6 -9 8 -9
0 -28 31 15 2 14 -31 13 17 -10 -4 -2 -4 -17 -8 20 20 -2 15 15 1 7 -14 -11 20 14 -13 4 7 3 -8 -7
-18 -43 5 28 -12 -12 -37 -11 -9 -13 10 19 -6 -10 -18 43 11 1 11 30 11 5 -22 16 28 10 -17 4 -16 -8 -7 -6
16 -12 -7 10 1 -21 -8 -19 -5 8 16 -10 10 -20 -28 -5 -7 2 7 26 -9 -19 -20 14 -2 24 24 -31 -7 -6 17 22
26 -56 10 6 26 -3 -28 -43 6 17 -9 15 1 5 -5 4 19 21 6 31 -4 -12 -33 -32 17 12 25 -18 -14 8 8 27
22 -85 -6 17 32 -3 -32 -53 -22 30 -9 4 27 -1 -15 6 37 22 -12 34 1 -27 -32 -47 21 10 35 -33 -5 0 26 35
27 -75 -10 -16 27 -3 -72 -44 -24 38 21 10 19 13 -29 15 19 -6 -11 48 8 -15 -41 -35 -12 40 7 -30 29 -1 42 64
43 -74 -29 -21 18 15 -65 -43 20 21 21 35 -10 33 -6 27 14 5 -57 49 -23 -16 -63 -16 3 19 26 16 21 7 13 39
24 -59 -25 -14 9 13 -22 -53 3 10 33 -6 -14 19 -28 32 27 6 -39 47 2 18 -53 -19 -5 24 23 -9 30 2 -15 41
10 -62 -31 20 22 16 -20 -35 -7 0 44 -9 1 21 -15 7 -1 20 -45 50 5 8 -48 -14 -23 41 30 -17 32 -5 0 57
12 -72 -44 -3 -5 8 -52 -59 -10 12 49 -21 -19 16 -12 16 16 19 -10 54 0 15 -47 -30 -12 10 5 -14 48 -3 18 39
10 -75 -31 15 -28 30 -41 -57 19 3 39 -43 0 23 -9 35 15 5 -30 33 -6 -5 -43 -43 -4 -3 -15 5 55 19 24 36
-10 -70 -19 15 -47 15 9 -57 -10 -5 11 -36 15 9 -11 29 33 19 -16 39 -3 16 -26 -24 -34 2 14 -5 56 13 7 22
-26 -37 7 13 -35 11 10 -44 14 7 19 -34 16 19 -10 42 27 17 13 43 -14 24 -13 -38 -15 7 7 -2 46 6 -13 16
-37 -43 -1 -1 -37 32 38 -22 14 10 45 -41 -5 26 -12 21 18 20 9 45 -22 -6 0 -13 -26 -4 31 10 40 8 -18 -8
-9 -22 11 8 -46 17 44 -10 11 -30 33 -49 -6 12 -12 12 29 -10 7 20 2 6 12 -19 -11 -12 20 5 39 15 -28 1
-12 -2 19 6 -35 -4 25 -26 15 -56 34 -6 -36 23 -28 21 37 -7 9 37 -4 28 23 -33 -27 -20 8 -2 7 14 -27 -7
-13 -12 20 27 31 -34 10 -42 13 -75 9 -16 -16 13 -7 36 18 3 9 53 -12 24 14 -35 -10 -14 -1 18 5 4 -46 3
-30 -16 12 23 17 -19 0 -17 -41 -59 -7 -20 -14 -24 -18 39 25 -18 32 36 30 19 38 -25 -12 -19 -10 3 -10 -9 -42 -1
-15 3 32 35 4 5 -30 -26 -7 -26 2 27 -12 20 -18 37 21 8 27 30 33 21 40 -40 6 -16 -17 5 -36 16 -47 -17
-1 31 25 36 3 10 -31 -31 7 -24 -5 35 -8 23 -4 19 -6 24 4 16 23 -10 22 -15 5 3 -17 2 -33 6 -26 -4
-13 35 52 34 10 -7 -30 -27 3 -35 -2 6 -6 21 14 18 -1 13 16 14 4 -14 3 -43 1 26 -11 9 -39 37 -10 -34
1 0 17 12 14 -11 -39 4 12 -17 10 4 -14 5 -4 10 12 -6 -4 37 -15 -11 -4 -36 14 11 0 28 -13 19 -14 16
-3 -6 -17 -16 21 3 27 19 -14 -16 23 14 20 -7 -22 10 -10 -17 -4 7 -1 11 -4 -14 -18 17 -9 -5 4 -1 1 -4
11 -7 -2 6 10 -21 -6 15 2 -2 -6 5 -9 0 -32 24 12 1 -10 13 9 17 -7 -22 4 1 -5 -17 2 16 -5 -16
-2 2 -8 4 -9 -4 -6 -2 3 10 2 6 -4 7 -3 6 11 -6 -11 -7 3 5 12 -3 5 11 11 3 9 -4 3 -2
10 -9 7 -7 -9 9 3 4 -4 -11 -4 11 0 -9 -12 -12 9 0 12 12 -11 3 13 -6 -9 8 9 -13 9 2 6 6
-9 -2 0 -10 6 12 -8 4 -2 -2 6 -12 -8 -14 -3 7 1 -10 -5 5 -9 -10 14 9 3 3 12 4 -10 6 -4 -7
-1 4 -3 -17 13 10 2 -15 -13 25 29 -18 11 -19 31 11 -3 -20 7 -1 -36 -24 1 -16 19 -1 -4 7 35 -10 35 4
-4 3 7 -10 -5 -13 -1 36 -21 37 35 -10 15 -22 -10 11 14 -21 17 36 17 30 5 9 -17 20 -5 -29 10 -14 28 31
-2 -6 -8 14 16 -18 -13 -5 -8 24 -8 -18 38 -10 -15 21 7 20 -1 3 1 -5 -13 -23 -8 30 24 -8 -12 20 25 6
-3 -15 -11 -5 25 -24 12 -27 -25 39 6 3 26 -20 -22 -15 28 14 1 21 -14 18 -19 -31 -19 23 30 -6 -21 2 13 17
25 -48 -36 -20 6 -37 7 -14 -9 21 21 9 16 12 -12 -18 22 3 2 3 -17 -13 -10 -24 -2 34 28 -14 21 -8 9 32
21 -57 -29 -14 -8 -39 3 -18 -15 5 11 -17 -3 -16 -35 -17 31 6 -5 21 13 -10 5 -42 -20 28 13 -30 20 -4 -4 19
26 -51 -47 -14 10 -44 5 -25 2 19 28 -8 14 -7 -10 -11 13 10 3 16 7 -38 -7 -48 -30 36 27 -34 33 1 25 31
8 -65 -35 -15 -21 -18 4 -15 3 14 27 -1 2 2 -22 10 3 13 -8 25 23 -20 -12 -35 -15 27 18 -15 29 1 13 38
9 -48 -43 -13 -13 -6 0 -34 8 23 59 -1 1 1 -5 2 -2 8 21 25 30 -20 -27 -35 -18 17 18 -17 17 2 -5 40
19 -17 -35 -2 -14 7 -17 -21 -3 12 25 -13 -3 9 1 8 4 28 30 2 47 2 17 -11 -26 21 16 -23 45 -12 12 33
0 -18 -42 -5 -26 3 3 -35 0 13 22 -10 -8 13 25 -8 17 12 26 -1 18 8 8 -14 -37 17 16 3 30 -8 -2 34
-4 -24 -26 -3 -53 23 -10 -33 3 11 7 -36 11 12 7 -8 10 3 5 -11 16 1 -2 -15 -4 11 2 -17 47 -8 15 10
-14 -16 -13 4 -57 18 1 -49 4 -7 12 -22 -12 17 -3 9 4 2 18 -6 10 -4 -10 -34 -31 25 7 -2 40 -17 -13 16
-13 -16 -2 -11 -35 21 0 -38 9 17 20 -5 -30 13 -6 28 16 -15 21 13 12 6 14 -15 -26 -4 -6 -9 57 -16 -30 4
-24 -10 8 -6 -6 19 26 -37 4 17 31 -2 -17 16 -3 7 0 7 42 -2 3 11 5 -25 -41 3 15 -7 33 5 -20 -12
-16 3 10 -1 -22 22 35 -28 23 -18 23 -1 -5 19 -10 13 -1 24 39 20 18 -15 17 0 -27 -9 -7 3 21 4 -25 6
10 7 11 5 -8 7 55 -27 3 -36 33 8 -11 12 -7 23 13 -3 41 31 15 -1 4 6 -35 -14 -1 -11 23 -27 -21 13
-7 -2 10 -7 6 -2 38 -39 2 -41 9 -1 10 3 -12 16 1 2 18 20 14 1 28 -21 1 -14 17 1 9 -7 -29 -7
-15 -11 17 17 12 11 35 -54 3 -48 7 3 -10 13 3 9 -7 19 17 -14 19 -3 7 -24 -1 -38 12 12 -12 3 -30 2
-17 2 16 16 17 -30 18 -33 -11 -20 -11 8 -2 7 -5 18 27 11 23 -11 25 16 9 -15 1 -22 -13 1 -20 -17 -57 1
-16 7 14 29 8 -15 27 -31 -1 -4 -18 31 -4 5 -3 30 42 14 7 -18 20 0 26 -49 5 -26 -3 7 -37 1 -16 -11
-27 8 21 50 16 -19 -5 13 3 -5 -2 28 -16 -6 -9 19 38 20 -4 -8 25 14 17 -22 32 -16 -8 12 -32 -8 -27 -19
-49 52 4 37 -26 -35 -27 46 -15 22 -14 51 -8 -21 -16 -12 33 5 16 -5 45 31 41 -8 -33 0 -24 -2 -26 -4 -27 -23
-26 32 -23 30 -45 -48 -34 55 -18 22 12 55 21 6 -23 -8 26 16 14 14 41 18 53 -17 -49 24 -4 -28 -10 -13 -12 -14
-19 12 21 15 -27 -27 -14 42 9 14 1 -2 16 21 9 20 40 14 9 16 48 8 18 -30 -42 -26 -21 -47 -20 8 1 18
10 9 36 28 -11 -29 -27 -5 34 5 -14 -23 21 21 -12 -9 15 12 -17 12 9 8 4 -22 10 -10 23 -15 -8 18 3 23
8 -8 -10 3 -11 -10 8 -3 8 2 -6 -9 -3 -10 11 -5 -8 1 5 9 -9 -4 -11 13 6 10 -7 8 12 12 -7 11
3 -6 5 -4 0 2 1 9 4 2 1 6 11 3 6 1 6 -9 5 -11 -12 0 4 -8 5 3 -9 10 10 -6 6 8
18 4 23 -10 46 7 -9 -34 28 6 33 -7 24 19 14 3 -12 -31 30 25 -36 -27 -10 -15 20 13 33 -2 41 20 17 29
8 -27 8 -26 -11 -36 6 29 -5 25 5 -28 10 -5 4 -30 -2 -6 -3 10 2 3 -20 1 -19 23 3 -22 19 -30 23 33
1 -16 -6 4 12 -44 -13 -17 9 18 9 -7 36 0 25 -34 1 11 -7 23 -40 -27 -47 -18 13 40 25 -29 -2 35 40 20
-26 3 -23 -4 61 -43 14 25 -30 41 -5 3 20 -4 10 7 31 -18 3 -2 -33 -1 -8 -14 -9 18 7 -3 -16 2 26 -31
-17 -11 -11 -4 39 -28 20 15 -21 38 -13 -23 28 -16 7 -6 32 -3 2 4 -22 -23 -12 -32 -18 24 12 -13 8 10 20 -9
8 -14 -29 -5 8 -32 11 -12 7 32 1 1 14 -18 -3 -4 -16 -8 -6 20 2 -10 -5 -35 -31 39 4 -10 -3 3 -7 8
13 -8 -52 0 -10 -29 -2 20 -4 17 -27 7 42 -31 1 12 -7 -3 -21 11 0 -17 -2 -18 -14 23 4 4 -6 41 -14 0
18 -4 -37 10 12 -11 0 -1 -10 20 2 11 25 -26 -6 10 3 -1 7 3 15 -2 11 -19 -14 15 -2 -8 16 29 -13 -11
29 -19 -38 9 12 9 24 6 14 5 -14 20 15 -23 -1 11 11 21 12 11 27 9 11 -17 -16 16 -12 -19 32 14 -7 1
20 5 -36 17 -29 4 3 18 15 -5 -11 4 -9 -28 14 11 19 4 26 28 31 2 9 -21 -48 14 -13 -15 8 3 -1 15
22 16 -37 13 -30 -1 4 3 15 8 -13 14 0 -5 24 4 23 4 35 11 25 -16 7 -13 -13 14 8 -8 4 17 -7 -4
30 0 -20 19 -64 7 -27 -1 13 20 -11 5 3 -9 20 4 8 -10 24 -8 19 11 -11 -16 -6 9 -5 -10 32 8 1 8
5 -9 -11 0 -41 20 -37 -11 8 12 12 -1 -18 -4 6 2 -2 -3 15 -2 18 7 -25 -7 6 13 15 -8 24 -3 -2 -2
23 12 8 -17 -24 27 -28 -18 4 27 12 -19 -23 3 3 -1 2 -18 15 1 18 -5 -1 -5 -3 19 2 -10 32 1 12 18
33 3 0 -19 12 34 -11 -24 0 21 11 14 -24 10 0 5 1 -2 22 12 24 -16 10 -15 -12 3 22 -15 30 -13 -22 7
26 -4 17 -15 11 22 17 -35 -1 -14 -1 -18 -17 17 -14 5 9 2 23 -6 18 -11 1 -10 -22 -11 -7 -11 24 -5 -26 24
9 3 5 -11 3 13 43 -30 16 -16 12 -5 -2 25 9 0 22 0 0 -5 6 -15 -12 -6 -23 -16 9 -6 18 -24 -33 29
-2 -6 30 2 2 8 54 -36 8 -62 25 -16 8 26 -3 5 17 13 18 9 25 -11 -10 -26 -32 -24 -3 2 1 -7 -31 15
6 12 37 5 -6 10 27 -45 5 -83 16 2 8 30 -4 -9 12 6 15 5 19 -13 -21 -10 -17 -33 -11 14 10 -17 -21 23
1 19 15 -8 8 6 43 -40 -6 -74 29 21 2 11 8 -4 1 14 0 -14 26 2 -23 -15 -1 -40 -1 24 11 -15 -39 3
-2 -15 6 8 4 -4 44 -22 -5 -25 23 34 -3 -16 11 6 23 11 -3 -1 34 -7 12 -21 8 -38 -9 9 21 -33 -20 -15
-15 -4 12 9 39 -57 26 -19 18 -23 1 25 10 -1 0 14 31 9 -12 -19 8 14 33 -27 16 -41 4 30 -13 -25 -23 -20
-35 20 19 35 18 -39 -10 16 19 8 -1 30 4 -6 11 6 27 16 -9 7 21 3 31 -8 23 -1 23 37 -31 8 -30 -19
-11 33 2 28 -32 -32 -46 36 -6 -17 0 36 8 17 14 14 22 13 26 3 43 7 35 -7 -18 3 12 -13 -17 11 -16 -5
-31 -8 34 16 -4 -17 -30 7 6 -7 4 11 28 12 -14 15 27 20 12 8 27 0 6 -19 -6 -39 2 -24 -20 -1 -13 10
-4 -1 25 14 -7 -10 -20 -2 27 -1 -20 -22 12 23 -9 6 6 14 -4 15 10 11 -7 -18 1 -6 2 -12 -21 19 -9 -2
4 3 6 -3 -12 -10 8 -7 -3 5 1 -11 -2 -3 0 7 -1 7 -7 -5 0 5 8 2 12 -12 9 8 2 5 -11 8
-4 4 -19 -16 4 -8 21 -3 -13 1 16 12 15 -15 -1 6 8 -5 21 10 -1 5 -9 -3 3 -10 26 -10 24 -17 15 23
6 38 -22 -13 -7 -33 8 34 -1 32 -3 7 32 12 -20 3 -8 -10 9 15 3 32 26 -5 -4 6 -12 -3 -9 1 5 -20
3 7 2 -53 5 -30 0 35 2 16 19 -9 44 -29 19 -18 -4 -35 -22 19 -29 16 3 9 -17 18 13 -28 -4 19 29 15
1 4 -15 -5 30 -35 -30 0 13 18 -18 3 53 -18 14 1 11 8 -10 29 -26 -4 7 13 13 24 46 -56 -13 27 46 17
-30 -6 -11 -3 15 -20 15 24 -26 1 -4 19 35 -48 -27 15 -3 -11 -14 24 9 -4 43 18 5 25 25 -44 -4 2 -26 -27
6 -4 -16 -3 26 -35 19 18 -11 17 13 2 24 -41 10 -3 -3 -26 1 30 -12 -22 15 -17 -22 28 10 -33 -7 25 7 3
9 3 -14 7 10 -21 13 -4 1 -3 -2 8 25 -36 25 8 -20 -11 -6 27 -8 -21 -20 -19 -40 25 -24 -10 -20 30 1 2
19 -2 -27 11 20 -16 -6 6 -2 11 -15 13 24 -60 2 6 -5 -5 6 20 7 -3 -6 15 -31 1 -11 -27 -3 27 -14 -4
19 14 -38 18 19 -32 22 30 -15 13 -9 20 18 -52 14 7 13 12 10 25 10 -8 -6 4 -35 3 -5 -6 -8 13 1 9
23 -2 -40 3 13 2 -1 35 1 13 7 18 1 -47 18 4 15 7 17 15 10 -2 -15 -13 -22 2 -20 -16 17 18 24 8
32 21 -17 31 -7 14 -2 13 4 14 -16 8 -7 -20 18 4 16 -2 0 17 11 -12 -12 -22 -34 -2 -33 -4 13 0 15 -2
35 14 -30 9 -20 -12 -2 8 17 3 -6 26 -11 -27 9 0 9 -16 8 22 13 -5 -13 -8 -5 12 -13 8 2 16 12 -9
38 32 -4 19 -56 -2 0 18 4 -6 -3 -1 -5 -32 21 18 9 -26 20 9 2 -3 -40 -26 -18 1 3 -2 23 -8 16 20
46 8 12 8 -43 -13 -51 35 -17 15 -13 -6 -21 -18 23 14 11 -11 2 6 7 -16 -44 -10 -7 -2 4 -1 43 -8 6 7
38 9 16 17 -34 3 -83 22 -36 4 0 -4 -29 6 18 -10 0 -18 6 0 -1 -16 -19 -9 -8 6 13 12 28 2 7 25
25 24 19 10 22 15 -51 15 -24 13 -2 -14 -17 13 29 -3 12 -16 -5 14 9 -1 -21 4 -34 2 7 23 37 5 7 31
15 13 11 11 22 11 8 26 -17 -11 -1 -10 -18 20 8 -1 13 -18 -8 -14 13 -3 -6 -5 -48 17 -10 13 32 16 -12 17
13 19 9 5 28 10 29 17 -35 -16 8 -8 -8 15 -7 13 26 -8 -8 2 -6 9 -13 -6 -59 17 -38 17 39 -9 3 26
0 8 20 11 7 12 37 7 -32 -21 12 5 27 17 -24 8 1 -11 -2 4 20 1 -17 -17 -57 0 -42 26 22 5 -28 17
-2 12 33 -4 4 7 30 -23 -28 -55 13 -1 21 1 -21 3 17 -18 12 -14 8 20 -23 -26 -40 -31 -32 36 22 -2 -30 14
-14 18 15 18 -12 20 31 14 -24 -52 20 16 19 -14 -6 15 -8 -4 -19 -25 6 12 -22 -7 -14 -30 -11 22 23 -12 -19 13
3 3 -10 24 14 2 15 -3 -10 -45 27 -1 7 -10 -41 15 3 -8 2 -9 35 7 -2 1 4 -43 -11 14 17 -22 -40 1
-34 13 13 27 13 -30 3 -17 -1 -10 6 7 -5 -4 0 -17 5 38 5 -20 38 13 26 -7 29 -53 12 20 -5 -26 -42 7
-31 -1 17 36 -5 -38 -35 3 10 18 24 36 -22 -12 -20 21 12 20 16 11 46 26 22 -6 27 -59 5 14 -28 -29 -33 -7
-27 23 38 19 11 10 -41 -7 -9 6 27 59 -13 28 31 17 43 1 39 26 33 10 27 -13 -24 -63 -21 14 -52 3 -28 -6
-19 -13 8 5 15 -8 -32 -20 -15 -16 15 24 -4 -8 18 7 44 -3 33 9 20 10 30 12 -13 -44 2 17 -19 -15 -2 -4
-21 1 15 3 18 -5 2 -8 5 4 11 -1 26 1 -3 -6 32 10 7 -6 11 -16 19 -9 10 -31 7 4 -26 7 -8 11
-12 -8 6 -4 2 0 -2 2 -2 2 -13 5 12 -1 -6 -11 -4 10 3 11 2 -6 3 12 -5 0 10 12 -13 10 4 -14
8 -4 -17 -46 20 -31 18 -2 -23 21 14 21 29 -22 -29 5 10 -7 -9 39 1 16 12 -21 5 12 25 -9 21 -23 24 10
-4 41 -17 -16 7 -12 -7 65 -22 49 -27 21 46 12 -5 1 -19 7 -25 13 2 17 33 18 1 -7 -16 -17 7 40 -15 -16
8 16 -14 -28 20 -44 -9 54 -9 30 -26 27 54 -29 22 -23 -3 -30 -14 12 -37 24 33 27 -28 21 11 -39 -18 31 24 -1
5 -12 -54 -28 32 -20 -2 -19 -5 15 -11 12 63 -21 33 -15 2 13 -2 41 -15 -30 6 -1 2 40 40 -59 17 11 38 21
12 -1 -50 -31 13 -17 34 2 -15 13 -2 23 15 -33 -4 13 -14 -1 -2 44 13 -27 23 -12 -24 34 24 -69 1 -22 0 1
6 19 -28 -24 6 -11 11 22 -17 2 -10 22 18 -51 21 12 -19 -6 -13 18 4 -31 16 4 -54 26 -15 -56 -7 21 -9 -8
2 14 -47 -24 24 -15 0 -10 -7 7 0 12 24 -51 -9 11 -5 -4 -16 9 -2 -25 26 8 -36 9 2 -11 -18 10 -16 -14
11 17 -48 12 8 -26 0 17 -3 -24 14 24 19 -42 2 3 7 19 20 31 30 -28 15 14 -31 -1 -12 -18 -7 2 -1 12
16 21 -40 8 26 -1 -13 16 2 -4 0 19 11 -37 11 18 -7 15 11 24 14 -6 15 3 -14 5 -8 -3 -15 24 5 8
12 17 -16 7 6 6 -6 11 15 -9 1 18 -18 -34 -2 15 17 1 10 21 0 -11 15 -1 -12 -14 -36 -13 -19 17 16 2
32 12 -21 25 1 1 1 10 35 -2 15 23 -3 -27 -5 25 12 -14 -7 16 -3 -13 -15 -17 -4 -16 -17 -2 -4 9 4 14
44 24 -19 21 -6 -14 14 38 18 -10 5 16 -5 -7 3 2 17 -24 11 12 -2 2 -25 -27 -20 -24 -27 -3 -5 -3 17 11
36 13 0 3 -46 2 8 38 -12 -12 -4 7 5 -5 13 3 9 -8 4 4 -9 2 -58 -1 -3 -24 -17 16 -8 5 12 22
35 -5 5 7 -42 -30 -45 23 -21 10 9 -11 -4 -9 27 3 41 -23 -4 18 -6 -3 -55 -13 -1 -14 15 16 27 -7 19 39
9 20 24 14 -10 11 -72 27 -17 -5 2 -15 -18 4 18 3 8 -17 -2 -7 3 -5 -23 -35 -29 -2 5 11 25 7 13 23
-5 -7 21 21 40 19 -43 26 -27 9 -4 -7 -22 9 28 7 26 -4 -6 -23 13 9 -1 -4 -44 -8 19 12 52 9 12 13
-3 14 9 17 54 44 8 47 -28 -7 6 9 -23 -10 -1 2 24 -3 -5 -16 -6 3 -5 -4 -25 24 2 13 30 13 -4 8
-6 16 21 18 30 34 48 26 -14 -23 13 16 11 10 -6 -1 25 -25 -16 -12 5 4 7 5 -34 8 -27 17 30 20 -20 17
-1 27 -1 10 17 10 54 9 -22 -45 8 10 15 4 -7 7 24 -9 -11 -6 -7 8 -5 -8 -33 6 -24 14 28 1 -42 2
8 16 20 5 3 -3 36 -4 -19 -38 -6 36 45 -1 -9 4 28 -12 -11 -15 -11 28 5 -9 -30 -16 -14 29 20 -8 -31 -8
-7 10 5 -3 0 25 12 9 0 -50 -7 21 18 15 -25 -16 11 -4 0 -24 -6 16 7 11 -12 -62 -11 35 21 5 -35 -4
-10 16 12 -4 -6 1 13 6 4 -29 11 36 17 -5 -26 -24 -1 20 -17 -29 20 9 34 12 -9 -73 -5 18 20 -21 -56 9
-53 16 20 21 9 15 0 6 8 7 19 19 -1 -16 -15 -8 -19 5 11 -36 28 30 38 -14 14 -53 -9 8 -1 -31 -34 3
-30 21 10 28 -18 7 -40 9 -8 18 8 3 -21 -3 -15 10 -10 18 3 10 44 12 34 4 24 -79 -2 0 -32 1 -43 15
-27 7 24 28 -25 4 -78 -6 1 4 5 21 -16 40 3 29 77 20 46 12 58 9 33 15 -11 -43 -29 5 -25 -15 -14 -28
-21 5 -8 14 23 -17 -28 -33 5 -6 0 26 12 16 11 -3 54 18 27 16 30 10 69 1 -5 -13 -33 7 -23 -9 6 12
-1 5 25 -1 23 5 4 11 -2 -7 8 10 8 6 27 -16 25 -7 -1 -17 -2 -3 2 -12 -12 -29 4 -1 -18 8 -3 -14
-13 -15 -3 -9 8 22 5 14 27 -5 -5 -25 9 -20 -10 1 5 -23 2 5 26 2 17 -17 25 5 16 -21 24 -1 -23 -7
0 16 -39 -27 3 -11 -3 20 -19 29 2 49 31 -20 8 14 6 0 -24 24 -25 15 36 32 23 -13 -3 -6 9 27 21 3
-11 45 -24 20 14 25 6 26 -5 26 -30 29 29 1 -7 2 -50 1 -14 8 -4 20 45 3 19 -16 -19 4 -25 26 -21 -28
-10 39 -22 -34 -6 -22 23 25 -4 35 20 -6 42 -21 10 -8 -20 0 -30 8 -19 4 28 2 -17 25 10 -39 -1 13 10 -3
9 8 -54 -27 4 -53 12 -11 -15 22 7 25 32 -45 26 -11 -35 11 0 12 -35 -33 22 -23 -16 21 42 -51 14 22 53 13
-5 2 -33 -28 4 -30 5 1 -6 -8 4 5 23 -47 6 7 -13 -6 2 24 18 -25 32 4 -20 0 4 -54 -20 5 -14 -7
-11 24 -41 -25 -15 -12 16 16 -11 -12 11 15 24 -45 0 -2 -15 -10 12 3 9 -12 28 10 -11 -6 -6 -34 -9 27 -3 6
4 15 -32 -15 20 -1 -12 2 -5 -14 4 13 20 -52 -2 -4 -11 -3 -6 9 -6 -12 31 3 -9 3 -4 -16 -15 14 2 -13
25 34 -23 21 7 6 -23 9 -3 -18 10 27 -4 -38 -2 10 -8 -4 16 10 -9 -27 25 -4 -12 -37 -16 0 -7 16 2 1
13 20 -13 4 24 6 -9 16 25 -21 3 24 15 -16 -7 9 -5 -11 3 5 8 -19 17 9 0 -16 -2 -5 -31 15 12 3
13 6 -12 -12 16 7 -5 24 37 -11 11 27 -4 3 11 1 15 -21 -3 11 6 -22 15 10 -6 -18 -34 -12 -24 18 27 10
17 6 -23 15 14 -8 10 26 32 -13 2 19 5 1 -5 22 5 -17 -5 22 14 -11 -6 1 -20 -35 -31 14 -42 8 -4 3
-3 9 8 -1 -12 -15 3 51 26 -21 19 28 20 -12 3 10 17 -31 -8 -2 -2 2 -16 4 1 -15 -25 14 -45 5 11 16
3 12 1 -6 -46 -7 -2 22 6 -6 11 28 34 -9 2 0 20 -1 -15 -10 14 8 -35 -17 -1 -8 1 9 -22 -17 24 17
22 0 30 -6 -37 -4 -52 53 -11 27 11 15 10 1 19 0 3 3 -1 8 -20 17 -31 -7 1 -32 19 21 11 -5 28 25
-12 -19 29 -10 -1 5 -72 50 -29 45 4 15 -10 -1 5 -1 -3 1 -12 -9 -4 22 -18 -10 -21 6 27 6 28 4 28 2
-3 -9 23 3 41 6 -19 49 -17 -4 1 7 -32 -2 17 10 -1 -17 0 -19 19 17 4 -13 -27 -1 7 -13 47 7 13 25
-4 6 7 7 49 16 40 34 1 -9 14 11 -18 -1 12 -2 -4 -19 -3 -10 2 8 1 -5 -12 14 -9 7 54 -8 7 -1
5 13 -1 10 9 11 34 33 -28 -32 8 17 3 -3 9 -5 -8 -12 5 -14 10 37 -2 -7 -17 29 -38 -5 44 6 7 1
3 19 -4 -8 12 21 41 2 -13 -41 26 33 30 14 -4 -12 1 -18 16 -2 9 11 -10 -9 -18 2 -24 9 34 22 -6 -7
-5 21 -5 -2 -8 -4 17 11 -8 -51 13 27 35 -4 -18 -13 -2 -15 3 13 7 28 21 0 -18 -45 5 0 45 2 -25 4
-13 11 20 17 -8 8 7 1 -2 -39 -6 16 30 0 -42 -4 9 23 1 0 5 23 6 11 -4 -79 -22 15 25 -4 -40 -1
-16 9 10 -28 -10 17 5 8 -18 -1 25 30 8 -1 -32 -23 -7 1 -16 -10 21 17 26 -3 -4 -78 -6 17 35 -26 -33 -13
-25 3 -21 -32 -2 23 -22 16 -7 22 18 45 -10 -10 -29 -8 -17 15 1 -5 19 22 36 6 -9 -77 -11 24 17 -25 -64 2
-49 -6 10 32 -40 7 -52 5 -8 46 -9 10 -34 11 -33 20 -26 1 18 -2 68 47 50 4 -17 -71 -37 28 -12 -24 -60 -24
-48 19 -1 46 -58 -16 -70 -28 -25 -3 -2 8 -22 6 -3 21 8 23 71 14 67 45 76 13 -16 -43 -28 19 -29 -28 -35 -17
-25 18 40 -15 -5 -13 -43 -17 -8 -29 45 53 8 21 14 -30 43 1 76 6 52 -5 55 -17 -50 -5 -32 -7 -8 0 4 -27
-12 15 32 -10 -10 0 -15 6 -31 -28 24 34 -8 -4 13 0 17 -8 27 -7 32 -9 23 -5 -25 -6 -16 -15 2 -15 -1 -13
-1 21 -16 3 2 8 -14 2 -4 16 -18 5 7 3 12 -5 5 -2 -22 2 -23 21 16 23 15 6 -12 3 1 19 -7 -7
1 35 -41 -25 7 -1 -9 27 -35 40 -15 35 42 -44 -8 23 10 -24 -27 3 -28 37 23 39 21 -19 6 1 14 27 12 -2
-11 26 -18 -8 17 31 12 35 10 17 6 10 47 -14 -8 5 -57 -3 -6 37 -7 18 21 -26 20 -25 -22 -12 -2 -2 5 -10
-14 19 -50 -30 -14 -25 20 34 -3 22 32 -4 27 -6 34 1 -22 1 -8 5 -25 -4 29 -20 -8 -1 -11 -9 11 33 24 -12
9 1 -52 -6 -11 -27 -8 14 -31 6 27 5 14 -44 8 1 -9 -18 -12 14 -19 -6 19 -22 -7 9 4 -49 -4 30 31 22
20 9 -60 -28 11 -37 -9 27 -9 -4 -5 25 10 -56 7 -15 -3 8 5 -8 -19 -23 38 -4 -22 -6 8 -55 -20 24 12 12
7 36 -35 1 -4 -12 -29 24 -5 -18 16 27 17 -40 -8 -1 2 1 2 -32 -2 1 20 2 -4 -4 -10 -39 -26 23 11 -12
18 26 -40 -9 18 -14 -19 -3 -5 -19 10 24 8 -29 -6 7 3 1 8 -17 -3 -15 22 -6 4 -6 2 -14 -29 14 32 1
8 19 -11 -5 29 -5 -6 14 2 -43 4 19 -11 -16 2 6 25 -5 8 -8 -6 -20 12 -10 -5 -35 -1 -28 -26 5 8 4
1 23 -18 6 24 -6 7 27 5 -35 17 10 -14 16 -3 9 12 -4 -20 -20 -4 -10 17 -4 -33 -33 -21 -27 -30 -7 7 11
5 9 8 -19 8 1 -11 36 3 -33 8 19 -5 17 15 13 9 -34 11 -16 -9 -11 16 25 -25 -32 -38 -9 -16 18 9 -7
-10 -5 -12 -2 6 -18 5 34 31 -22 -3 22 1 -4 -4 37 24 -19 -1 -28 -1 -10 11 21 -32 -48 -50 1 -48 6 0 2
-7 -8 -5 -19 -13 -3 -1 39 25 2 -9 28 15 -2 -9 31 13 -31 -8 -19 -2 -2 2 15 -16 6 -39 14 -37 -5 6 -3
-44 -17 12 -34 -73 6 -16 29 -8 36 10 29 11 10 6 11 -3 -24 -10 -45 12 5 -37 4 15 24 -11 29 -25 -8 9 2
-33 -6 23 -30 -71 -5 -73 31 -26 56 1 37 -3 -11 9 -13 -13 -23 -19 -24 -12 29 -35 13 20 34 -2 24 -3 6 35 -7
-1 -27 18 -18 6 -2 -73 56 -41 62 2 9 -32 -4 32 -11 -28 -2 -7 -26 -4 16 -19 9 9 41 7 0 16 -6 39 2
2 -7 4 -26 51 -5 -2 49 -17 16 5 20 -35 -8 31 -13 -56 12 7 -10 3 39 -6 -4 7 22 -4 -1 41 -14 31 -12
15 -4 -8 -19 27 -20 29 57 -17 -13 1 17 -4 4 29 -24 -55 -3 15 -12 5 19 12 17 4 48 -17 -24 31 -2 17 -14
23 19 -22 1 1 11 38 32 1 -20 12 14 11 -10 24 -10 -53 -10 19 -2 0 29 12 15 -3 15 -26 -17 40 15 11 -14
10 30 -27 6 -16 40 33 20 -13 -37 1 2 25 5 -2 -34 -54 -8 22 -10 3 15 -9 9 2 -10 -18 -12 32 14 -12 2
7 34 -17 2 -32 32 22 14 -9 -49 3 -3 40 9 -24 -14 -51 11 10 9 -12 25 22 -2 4 -65 3 3 34 11 -35 -13
-16 35 -7 -1 -12 3 11 -10 14 -34 11 -16 17 -2 -40 -8 -31 0 17 -1 10 16 30 -12 15 -101 -10 -4 8 -8 -28 -9
-11 35 -3 -19 -1 9 -5 9 -22 -6 4 2 6 -18 -45 -35 3 9 4 9 2 27 26 -19 -2 -95 2 7 30 -18 -41 -10
3 12 -4 -21 -9 31 -21 21 0 12 21 9 -37 -13 -36 -10 -27 -14 0 -1 29 16 48 -13 -5 -58 -38 15 27 -24 -52 0
-58 -25 0 33 -38 20 -40 -8 -23 -5 36 2 -31 -17 -27 26 -43 -15 0 17 73 38 61 -9 16 -73 -51 25 -4 -25 -57 -16
-43 1 4 13 -60 -16 -59 -22 -44 4 56 42 -20 -14 -21 16 -7 11 69 49 81 43 90 -2 -51 -28 -66 31 9 -39 -23 4
-26 26 -1 -26 -15 1 -42 -48 -49 -31 33 27 -17 -5 34 -12 -1 -26 71 26 60 8 58 3 -51 -24 -45 16 -4 -23 20 -15
17 -19 -7 -23 2 -6 0 -13 -30 -36 -17 19 -4 -18 20 24 4 -31 -21 26 -6 19 19 11 -11 -28 -35 9 24 3 25 -13
0 8 -9 -13 0 7 -1 12 -14 11 -15 20 24 -10 1 13 9 -6 -7 9 -19 17 12 18 20 7 -11 13 -12 8 4 -14
0 4 -2 -13 26 -3 -9 19 -2 42 2 56 32 -6 9 33 -22 -18 -24 -3 -25 23 45 13 16 -7 -13 15 0 7 6 -21
6 24 -25 -44 20 -3 -9 41 -8 18 -10 27 50 -12 -20 9 -32 -27 -40 22 -31 28 35 -7 -6 -15 -23 9 8 30 11 -10
24 20 -44 -29 -11 -44 8 36 -11 17 38 13 6 -6 -16 -15 25 -6 1 -1 -23 27 7 -34 -33 10 7 -31 18 7 31 10
-4 4 -53 0 -20 -32 -14 -8 -10 -4 16 38 6 -18 -7 -2 6 -1 -5 -31 10 -4 25 -28 -28 0 -29 -45 -33 18 5 10
4 12 -49 -1 -8 -14 -31 8 11 -17 10 39 -5 -25 5 -12 10 13 1 -27 -21 -17 11 -18 -27 3 -5 -32 -22 50 5 10
29 18 -49 -18 -21 -4 -44 33 10 -25 4 29 -20 -16 9 -5 -4 11 3 -61 -2 -21 3 8 -16 -7 -25 -32 -11 33 16 18
0 5 -27 0 1 -11 -36 14 6 -34 18 5 -6 6 -8 6 11 3 4 -60 -10 -8 4 -11 19 -27 -21 -45 -47 28 4 19
-2 15 -29 7 7 -22 -13 7 -18 -40 12 22 -10 5 7 11 26 -9 11 -47 11 -26 29 7 -2 -51 -28 -19 -24 10 1 9
-15 2 -6 17 16 -14 -14 17 8 -16 -2 19 -16 19 11 31 -3 -20 -15 -62 18 -18 52 2 -28 -25 -45 -13 -27 16 -20 -5
-25 -10 11 -3 -18 -2 -8 9 8 -13 15 28 -2 12 9 20 -14 -7 -10 -55 11 -17 42 22 -30 -20 -49 -8 -21 4 -7 -1
-45 -9 -5 -17 -35 14 -10 0 21 17 -4 23 -1 14 6 27 1 -15 -9 -54 20 -1 35 21 -19 -3 -41 20 -18 3 -20 -4
-50 -25 9 -21 -77 2 0 13 17 6 -16 23 -20 3 -10 18 1 -29 13 -73 8 12 2 40 -3 34 -24 21 -46 -11 -25 -5
-46 -30 11 -22 -98 9 -32 16 -6 32 8 43 -12 -18 -8 8 12 -55 -18 -70 -9 27 -22 5 31 48 13 29 -51 -4 3 -12
-41 -31 31 -41 -51 14 -75 30 -20 43 9 27 -34 -25 9 -29 -19 -46 -8 -49 -7 29 -34 12 35 43 0 25 -4 3 22 -3
-38 -23 16 -33 39 -11 -50 22 -44 30 -7 15 -33 -24 40 -9 -40 -14 9 -27 -5 33 -10 19 33 33 -8 40 2 -6 30 -31
-3 -1 -15 -19 38 -19 17 31 -26 0 4 -1 -27 -19 41 -17 -40 -15 10 11 1 21 -1 13 7 31 -7 1 26 7 27 -25
29 -7 -21 -23 19 -7 56 27 10 -16 5 -5 10 -22 47 -7 -58 -27 10 -3 -1 21 -1 4 22 29 0 -34 19 -9 22 -7
27 19 -2 -6 -17 0 39 16 -6 -39 9 -9 36 -3 35 -14 -57 -8 3 -13 -4 28 14 27 16 -8 -8 -31 9 11 19 13
18 27 -7 -19 -30 -3 15 6 -3 -37 3 -11 36 6 1 -33 -63 -15 20 -11 -1 22 18 4 -12 -46 -1 -26 17 23 18 -5
-12 33 -23 -9 -33 27 16 28 -15 -21 7 -7 37 5 -33 -20 -50 -2 18 6 -10 27 14 3 13 -88 -10 -26 25 7 -17 9
5 19 -25 -2 -19 14 -2 17 11 12 4 -5 23 6 -64 -20 -60 -8 4 -8 -15 3 29 -1 14 -97 -19 4 34 13 -37 -9
-16 29 -19 -24 -27 18 -2 12 -5 10 7 -17 5 -15 -37 -5 -53 -21 1 6 -2 17 31 -13 3 -61 1 -22 38 -2 -32 3
14 7 14 -1 -19 40 -38 -9 -10 -10 39 -10 -32 2 -46 5 -66 -11 3 18 26 10 5 -15 -5 -26 -49 4 30 11 -60 9
-21 -19 6 37 -29 3 -49 -13 -4 -5 48 -16 -47 -28 -52 17 -81 -8 18 33 66 51 22 6 4 -50 -38 2 14 -22 -69 11
-29 -25 -30 19 -17 -35 -47 -41 -61 16 29 35 -40 -16 -13 21 -17 -1 60 45 65 63 39 36 -46 7 -32 40 9 -73 3 -9
-15 -25 -20 -11 0 -27 -11 -54 -61 -12 33 37 -45 -31 10 18 10 -35 67 38 59 62 70 28 -26 15 -29 13 16 -45 16 -13
3 3 -16 -22 12 30 -7 -19 -32 16 5 15 12 -39 41 1 0 -34 -11 3 -5 3 33 -6 -11 -18 -22 2 15 11 32 -21
-23 29 -16 -5 -12 -2 -3 9 -8 8 -15 17 9 -4 8 2 1 6 -22 -5 -2 9 34 39 6 2 5 17 -9 25 2 -26
-24 2 -17 -23 28 3 5 44 31 26 -3 36 25 -11 20 13 -22 -28 -19 9 -1 14 39 -21 38 -12 0 -18 14 27 4 -25
-30 52 -12 -38 23 12 -27 40 -14 37 -15 25 37 -21 2 37 -33 -25 -49 -7 -43 45 42 -6 -36 -13 -23 13 -3 50 13 -22
19 43 -57 -46 9 -34 -28 29 -10 30 35 2 14 -39 -29 -19 13 -23 -6 -24 -37 29 21 -18 -17 30 -12 -17 -16 23 52 20
6 10 -38 -40 -29 -40 -40 -1 -18 20 8 20 9 -12 -20 -22 0 -12 -5 -47 -19 -2 7 -45 -59 7 -37 -21 -24 23 0 4
11 -2 -35 -8 -31 -14 -34 -16 7 -20 -8 44 -4 20 8 -15 21 7 0 -53 -20 -26 -3 -17 -31 0 -26 -11 -45 19 -13 -7
18 -2 -6 5 -20 2 -6 20 -7 -26 -1 15 -2 7 -2 -3 -16 25 -8 -67 -9 -16 11 -18 -20 -42 -24 -27 -31 28 -13 4
-13 25 -19 18 -33 0 -18 10 4 -21 -8 25 -5 15 6 10 0 -3 -12 -72 8 -12 14 -12 11 -33 -4 -21 -34 49 -15 3
-18 16 -7 21 -17 -1 -3 -1 -7 -23 -24 1 -14 19 2 0 -1 10 -7 -57 -7 -18 33 2 -24 -39 -4 -42 -11 32 -37 -9
-34 11 0 26 -13 -1 -17 6 13 3 -12 9 -10 8 5 17 -19 18 -13 -81 -3 -30 55 11 -8 -11 -10 -25 -27 20 -30 -3
-50 3 6 15 -38 -15 -7 1 -6 7 -27 -3 6 -10 3 33 -13 3 -7 -58 3 -2 74 3 -7 27 -13 5 -9 21 -22 -9
-64 -22 0 22 -58 -6 -10 2 2 25 -26 9 1 -8 7 25 -6 -8 5 -55 11 9 59 12 -3 31 -8 14 -7 1 -7 4
-61 -14 12 11 -72 2 -1 9 1 29 -43 -11 -11 -20 -26 5 -5 -20 22 -65 23 10 29 10 21 42 24 29 -22 -6 -7 0
-52 -15 47 -17 -44 -13 -35 2 -20 22 -13 -42 -19 -46 -5 -6 21 -69 -6 -11 0 34 -24 9 37 62 18 29 -42 26 -2 17
-35 8 44 -12 15 14 -62 -2 -41 42 15 -28 -30 -35 36 -33 -10 -60 28 4 4 32 -39 -4 28 36 -3 17 -34 22 12 -22
-14 9 10 7 44 -4 -24 11 -35 8 -23 -31 -24 -21 43 -9 -23 -41 28 -1 17 28 -11 6 23 23 -2 28 -2 8 32 -29
3 8 12 7 45 -16 8 -13 -29 -13 -36 -4 -15 -10 51 2 2 -22 21 2 5 18 6 -5 6 -2 0 1 -35 -8 25 -23
13 7 -6 6 7 -32 38 9 -18 -22 -22 -21 14 -13 51 8 3 -39 29 -9 -15 42 -7 -6 -14 -26 -13 -29 -6 13 17 -6
-1 22 -19 -18 -22 -31 21 9 -15 -40 -5 -17 44 -11 33 10 2 -20 18 -16 -23 30 1 4 7 -50 -14 -38 7 14 20 -9
10 21 -2 -16 -19 -11 7 9 -1 -28 5 -12 48 20 8 -10 -30 -4 19 -18 -26 4 7 21 5 -96 2 -37 18 5 31 -7
0 32 -5 15 -11 8 -6 34 -12 4 -12 -13 50 18 -23 -7 -37 -5 4 0 -43 4 2 0 7 -72 -34 -33 40 21 44 -16
24 18 -8 13 -22 23 -1 12 -5 16 1 -44 8 10 -55 9 -17 -5 -13 -5 -30 -9 -1 -25 16 -86 -16 -15 26 33 -23 -6
7 14 -23 7 -20 20 -5 22 -4 -2 1 -15 2 2 -38 -11 -42 -11 -15 10 -24 -11 18 -13 21 -65 -22 -27 20 27 -39 -12
20 0 -8 -4 -26 32 -56 -9 -8 -13 6 -22 -28 6 -42 17 -84 -12 8 22 23 -5 -1 -19 -4 -39 -40 -22 16 32 -75 -15
-2 -29 -4 7 -12 21 -49 -21 6 -55 48 -28 -60 -13 -42 19 -104 -11 40 24 59 12 3 2 -31 -35 -53 -16 -13 -21 -55 16
-31 -20 -38 -29 -26 -5 -40 -31 -32 -4 67 28 -48 18 -2 -18 -39 -8 55 34 68 44 21 38 -55 19 -38 20 -8 -59 -2 -16
-28 3 0 -14 -34 -2 5 12 -70 -18 63 43 -42 -43 3 -35 15 -47 59 -26 100 43 57 2 -56 1 -59 -8 18 -42 -1 -24
-20 8 -9 -25 16 9 8 -28 -28 38 15 -5 19 -29 28 17 11 -21 -2 -23 -8 -16 20 -16 1 -27 -27 10 5 6 35 -14
-3 11 -11 -15 -12 7 9 15 -8 19 -11 13 8 3 19 -5 2 2 -4 -4 -10 17 11 0 9 -4 6 7 1 19 -18 -6
-26 30 -6 -4 22 -3 -9 28 5 30 14 35 12 -25 9 16 -20 -21 -35 -9 -3 41 37 15 9 -26 -15 4 -20 34 -7 -16
-17 34 -19 -19 22 33 -24 40 -11 46 -25 57 22 -29 22 39 -39 -34 -28 -30 -44 43 31 14 -16 -8 -31 33 -39 41 10 -14
19 32 -52 -19 1 -13 -31 30 -2 26 4 -11 27 -38 -18 -2 16 -21 -31 -20 -8 22 27 -25 -14 -3 -25 4 -37 27 13 21
-15 11 -42 -19 -30 -15 -44 24 -25 12 -14 -1 -8 -1 4 1 18 -2 -9 -32 -15 11 -17 -40 -63 -9 -70 6 -23 34 -17 -11
-30 14 -26 -2 -18 -4 -22 -1 -1 -13 -13 0 -13 13 -6 2 17 11 -2 -50 -17 -36 14 -50 -13 -7 -28 -2 -39 21 -18 -26
-19 -8 -5 12 -40 22 -8 3 4 1 -22 6 -12 26 -18 30 -4 10 -4 -66 -9 -32 7 -36 -18 -28 -22 -23 -23 21 -41 -7
-33 22 -16 18 -35 -4 14 -4 8 15 -14 15 -18 10 4 29 6 14 -16 -52 14 -22 10 -1 -15 -14 -19 -28 -8 33 -47 -19
-29 12 3 31 -37 -15 -12 13 9 21 -36 20 -14 4 -7 25 -6 14 -15 -53 -11 -34 27 9 -19 -17 17 -37 -12 33 -26 6
-48 6 11 14 -59 -2 -14 -6 16 24 -24 -8 -14 26 -7 27 -7 24 -16 -49 13 -12 39 12 -2 29 -1 -15 -6 12 -24 12
-29 3 -4 18 -51 -3 10 -6 -13 32 -33 -24 -5 3 -29 33 6 19 2 -29 21 5 58 18 19 36 0 0 16 -3 -11 6
-36 -13 19 25 -45 0 25 -13 10 30 -44 -50 -7 -8 -31 18 10 -2 3 -9 28 38 63 11 32 40 29 11 -5 11 -20 10
-51 -15 36 -12 -37 1 13 -22 34 17 -34 -66 -4 -23 -23 -19 -5 -21 20 10 30 25 35 18 57 36 48 18 -24 -30 -17 -1
-26 -5 51 -1 -7 -2 -5 -17 23 20 9 -77 -21 4 2 -37 5 -35 55 19 28 25 -19 4 44 22 41 -4 -32 -14 -9 -2
-16 23 40 -8 17 -5 -26 -32 -21 13 25 -65 -37 -5 25 -46 9 -62 53 33 10 28 -34 9 16 29 -7 26 -22 19 37 -16
-19 27 28 1 24 -10 -13 -16 -26 4 -12 -38 -18 -19 46 -6 1 -46 52 9 13 41 -16 11 17 3 -12 26 -32 -3 39 -31
-19 27 5 7 23 -14 -2 -32 -23 9 -30 -10 28 -6 50 14 9 -18 30 10 3 21 -14 -6 -2 -13 17 10 -41 13 21 -15
-22 20 11 -2 0 -12 17 -8 -9 -15 -24 -12 33 -8 54 8 11 -6 18 -6 -1 17 -10 9 -23 -45 -2 -25 -9 14 30 -10
-7 32 -18 3 -7 -24 7 26 -9 -26 -14 -20 32 -5 28 -7 19 -19 -2 -17 -20 16 -3 7 -5 -55 -23 -32 5 21 33 1
6 41 -11 -10 -25 11 -3 13 4 -15 -9 -37 29 5 0 -24 -3 21 24 -20 -10 -15 -6 -1 6 -49 -13 -46 24 5 21 -5
8 29 2 2 2 13 -13 5 6 11 -15 -28 24 21 -47 -22 -1 20 19 -22 -19 -16 -4 -14 6 -70 -20 -32 33 8 -1 -7
-4 29 5 14 5 25 6 12 9 -12 -6 -18 6 21 -52 -12 -6 11 -23 -14 -17 -45 13 -38 14 -35 -6 -22 14 28 -31 -13
16 15 -10 23 7 49 5 5 10 -11 -32 -32 -30 2 -58 4 -11 -11 -20 -17 -21 -54 -11 -36 28 -22 3 -32 -9 43 -24 -39
13 4 14 29 4 70 -33 -15 5 -21 -15 -27 -37 29 -46 36 -40 11 -10 -36 -2 -63 -37 -42 -15 -18 -9 -46 -6 67 -47 -6
10 1 -12 -4 33 60 5 -19 58 -21 43 -16 -11 6 -12 -1 -77 22 -13 -14 25 -58 -8 -19 2 0 13 -27 -24 41 -11 7
-32 -7 -60 -38 11 10 -13 -13 11 10 63 21 -33 -9 9 -29 -57 -5 5 3 14 5 3 35 -36 15 -2 22 -33 -2 15 -5
-6 16 -35 -20 -20 2 16 25 -57 15 63 20 -33 -36 -2 -26 16 -36 24 -16 39 27 59 29 -49 3 -52 -5 -2 -45 -5 -22
3 -1 -16 -29 11 19 0 -6 -15 24 29 6 21 -4 36 8 15 -25 -26 -1 -29 -22 -2 18 -6 -27 -18 36 -9 5 20 -13
-1 -7 11 -22 5 10 -2 -6 8 16 27 -3 -8 7 13 -5 -4 -13 5 -11 -14 -25 0 -13 9 13 3 22 4 -9 9 2
-6 18 8 2 12 7 -7 18 5 9 -15 26 17 -10 23 30 -11 0 -12 -1 9 0 20 11 5 -3 8 19 -14 22 0 -5
-19 38 -38 -27 19 -2 -11 42 -9 46 -17 50 44 -17 11 29 -22 -12 -46 -3 -47 40 55 24 15 -12 -16 23 -28 45 21 -28
4 14 -39 -32 -17 16 -31 30 -18 35 -3 -41 4 -23 -26 -7 6 -28 -30 5 -19 28 4 -30 -1 -26 -39 23 7 27 4 25
-21 17 -29 22 -42 22 -31 38 -27 23 -37 -57 -25 -8 12 33 14 -10 -19 -53 -25 -1 -12 -14 -46 -42 -42 3 2 23 -15 -31
-32 -1 -48 23 -28 -4 -9 -10 1 20 -23 -29 2 -11 -21 21 -12 2 -11 -42 8 1 9 -51 13 -9 1 -24 -4 23 -29 -18
-47 1 -27 25 -47 7 21 6 13 28 -34 -36 -3 19 -41 21 2 5 -32 -26 -14 -11 22 -11 -10 12 17 -14 -11 13 -29 -8
-51 -3 -24 41 -69 9 -2 2 2 26 -25 -37 -11 35 -3 48 7 12 -9 -11 8 -14 32 17 -5 17 1 -31 7 -2 -15 -3
-28 15 -9 33 -45 -1 16 -1 -2 25 -25 -44 -1 18 1 26 5 23 -1 -3 2 -19 35 9 1 25 -3 -26 7 11 -17 -10
-11 9 8 36 -40 -3 0 -8 2 29 -19 -27 7 -3 -20 26 -13 31 -8 -6 7 -10 30 10 16 23 13 -23 1 5 -13 15
-10 6 2 58 -19 14 18 -2 10 37 -33 -39 -8 26 -33 20 9 20 -4 13 24 32 46 25 23 17 34 -9 4 16 -24 11
-13 8 11 29 -23 -4 25 -12 6 12 -39 -62 -1 13 -8 -3 -4 18 15 10 46 18 43 34 48 13 41 3 15 -1 -15 -14
6 14 52 -2 -4 0 5 6 33 18 -1 -75 -9 40 -24 -30 19 12 48 34 55 11 10 17 47 3 30 -2 -16 -29 -16 4
20 8 44 11 8 -4 -17 -8 12 -9 35 -40 -25 63 9 -55 10 -2 56 52 23 5 -28 14 16 16 14 8 -9 2 22 6
0 22 43 9 24 -5 -19 -17 -5 14 24 -23 -7 18 29 -24 10 -20 58 19 12 11 -48 19 5 3 -19 29 -6 -2 25 0
-19 48 30 29 15 3 -23 -33 -5 -9 0 -21 7 7 30 -15 -2 -9 45 9 10 14 -32 9 13 2 -2 29 -24 22 16 -19
-12 33 3 26 16 2 2 -33 -20 17 -23 -21 27 -5 41 1 11 4 29 34 -10 17 -11 3 2 -10 -6 30 -26 14 29 -15
-21 19 -11 -1 10 -20 12 -8 -9 2 -25 -7 28 1 44 1 1 13 16 -2 0 11 2 11 -7 -19 4 -13 -2 8 33 -17
-21 40 -7 10 -2 0 5 26 -17 5 -22 -19 25 -2 10 -15 -2 17 10 7 -10 4 7 18 9 -24 8 -37 -8 9 13 -11
16 32 -4 2 14 19 -27 -6 1 -21 -32 -26 7 10 -49 -5 -6 29 30 4 -8 -18 1 -4 8 -35 -17 -31 17 20 14 -7
6 38 -18 -8 39 12 -5 -2 13 18 -32 -28 -12 -6 -64 -17 2 5 10 -11 -11 -25 6 -18 13 -23 -9 -25 -11 7 -19 -17
16 35 -25 11 33 24 14 6 7 10 -43 -15 -29 -10 -53 3 1 13 -18 4 -28 -20 15 -15 21 -27 -2 -20 -13 17 -21 -20
12 9 -20 25 14 40 12 16 35 -2 -32 -42 -32 4 -26 25 -7 4 -5 -21 -23 -76 -3 -41 17 -6 9 -46 -18 35 -15 -21
7 -22 -26 17 12 48 -17 -15 35 -13 -33 -26 5 19 -14 33 -11 8 -5 -22 -4 -90 -39 -46 13 11 27 -46 -29 57 -15 7
24 -28 -52 -34 31 29 21 -16 58 8 19 -12 4 -22 0 5 -18 -13 -32 -8 -5 -66 -30 -3 5 12 43 -19 -26 41 24 11
1 8 -66 -48 -3 27 7 18 21 33 20 -10 20 -21 12 -28 -29 -14 -12 9 -3 -7 -29 33 -35 23 5 17 -52 1 15 -18
24 -9 -32 -53 4 28 35 46 -13 9 50 20 -2 13 28 -33 2 -23 15 0 18 -4 -8 48 -54 -15 15 30 -18 -31 2 -6
15 -24 -20 -21 -4 31 -6 11 14 -12 16 8 12 13 6 -12 -18 -6 -18 16 -34 -15 -10 14 -24 12 17 27 8 -17 3 -1
-9 -13 -4 -9 -6 -10 11 -13 24 -13 19 -2 -2 -2 -17 25 23 1 -10 9 10 27 1 25 14 -15 4 -20 -11 -24 -5 5
-27 32 4 -2 3 -22 1 -1 -4 12 12 -19 6 -20 6 16 7 -1 2 -16 -1 15 28 3 3 -12 1 7 -7 -4 -3 2
-29 37 -4 -28 33 -22 -7 30 -1 35 18 24 48 -27 12 16 -23 -24 -44 -7 -27 26 50 -9 7 11 -17 22 -5 26 0 -31
24 13 -5 -20 4 -8 -18 26 21 41 -3 -41 12 -8 -7 -8 -13 -14 -19 10 -35 17 -14 6 4 -7 21 21 19 10 21 19
-24 17 -38 13 10 24 1 21 -16 24 -43 -64 -8 6 -7 36 -21 8 -32 -13 -15 20 3 28 -42 -14 1 17 15 -19 -7 -33
-29 -11 -35 19 6 18 24 -5 14 20 -31 -78 -20 -10 -20 37 -54 23 -25 5 3 1 46 -8 0 2 24 -16 9 16 -52 -26
-14 -5 -54 32 -34 12 19 -4 10 -1 -20 -84 -9 21 -35 35 -3 34 -14 22 1 -12 22 17 -6 3 21 -16 19 13 -18 -8
-1 -5 -48 47 -39 18 12 13 15 24 -21 -80 -6 24 -23 40 3 20 -5 14 -2 -3 27 21 8 3 20 -26 18 11 -18 8
-5 -7 2 37 -11 6 16 16 -5 33 -9 -75 -9 20 -20 22 -3 24 -11 19 -5 2 24 14 23 14 24 -20 0 -1 -19 -6
7 -3 4 41 -2 3 13 -3 -5 29 -20 -72 -10 13 -31 20 3 29 5 29 11 25 32 24 19 28 20 3 10 7 -21 1
-2 2 16 53 -4 18 5 -8 3 13 -10 -49 -3 10 -14 7 -1 13 -3 35 26 14 24 21 26 4 12 13 -8 21 -5 -8
-6 9 10 33 9 24 3 0 31 -17 -12 -61 7 46 -10 -19 6 20 21 21 36 3 18 28 40 -9 29 -18 -6 10 -10 -7
6 14 35 0 26 21 4 5 17 8 23 -47 -7 38 9 -42 -2 31 24 39 40 18 -13 11 34 -19 15 -18 -7 3 10 5
17 29 40 7 16 6 -6 -11 16 -17 46 -14 -24 50 25 -37 12 -4 51 23 19 -8 -16 18 22 -10 0 5 -7 1 16 -1
-1 37 23 -14 23 -4 -15 -15 -3 8 40 -10 3 15 38 -19 10 13 66 25 8 0 -25 -3 14 -1 -3 31 -11 -7 19 -3
-10 23 18 16 27 1 -9 -23 -28 17 13 -22 29 19 34 10 1 10 54 16 14 5 -9 12 5 0 -15 40 -5 -1 22 -9
-14 32 10 22 39 -15 2 -36 -13 2 -23 -18 11 20 44 21 -1 21 41 5 -2 8 -8 38 -12 -18 20 24 -11 4 12 -11
-15 34 -6 14 24 2 20 7 -8 -2 -20 -8 23 -1 21 -7 2 25 18 -5 3 1 -2 43 1 -18 1 -7 -11 3 1 -15
-5 27 -26 28 4 6 -6 11 -5 -12 -19 -22 23 -3 -2 -16 -15 14 7 30 -2 -6 -4 32 -5 -14 1 -44 -2 34 10 -10
8 29 -16 13 38 12 2 22 0 1 -39 -11 -5 -11 -43 -9 -18 14 -8 14 -13 1 12 10 10 6 1 -9 -3 27 8 -19
19 12 -8 24 35 16 21 13 -8 -1 -31 -13 -30 -18 -70 12 -11 -6 -3 8 -29 1 -10 0 -2 18 7 -44 -12 15 -16 -2
13 12 -32 24 42 20 20 17 -2 3 -13 -14 -34 -13 -46 6 2 0 -14 3 -6 -11 -20 -25 6 13 7 -45 8 26 -4 6
12 -10 -46 3 14 24 6 4 10 10 -25 -25 -18 -13 -31 37 -4 1 -17 -4 -19 -52 3 -30 4 2 30 -29 -19 49 -9 -7
-6 -40 -74 -8 39 11 4 2 31 26 3 -24 17 -25 -10 56 33 -2 -28 -10 -17 -53 -1 3 19 -2 27 -22 -14 40 -3 1
-7 -41 -61 -35 28 30 -3 -2 46 16 23 -26 58 -10 12 41 25 -24 -16 21 -2 -35 -3 13 23 -2 27 -15 -4 14 7 0
-27 -1 -29 -30 12 29 -5 15 62 17 -7 7 24 25 15 -6 -22 26 -18 13 -29 -37 -49 25 -29 11 31 18 -46 11 -15 6
31 -37 -45 -41 -1 51 31 40 32 18 30 59 10 52 34 -42 -19 -5 -16 13 -31 -37 -42 44 -47 8 32 61 14 -27 15 5
27 -20 -22 -13 6 21 -3 1 19 -19 6 10 12 21 21 -11 -6 7 -13 28 -18 -16 -15 3 -21 -10 35 13 9 -5 15 2
-8 -18 -20 -17 9 -3 -7 -16 8 -9 1 -5 16 -10 -1 18 13 -18 5 -4 19 10 4 8 -3 -2 5 4 -12 -20 -8 17
-10 17 18 -1 -1 -3 11 11 -12 -8 0 -2 14 -17 6 3 6 -7 14 -6 16 23 12 2 -9 -4 -7 0 -18 -2 22 2
-33 4 -3 -23 35 -17 53 -14 15 27 18 -22 41 -27 11 -13 12 8 10 -31 10 -10 53 -21 29 18 17 17 -17 -26 -2 -28
17 11 -38 -21 5 -18 -2 0 9 26 -24 -31 -18 42 -1 -23 -11 29 2 28 -1 1 1 34 -6 18 30 4 5 0 17 -18
-8 21 -18 10 12 8 8 40 -31 34 -41 -58 -4 26 -3 12 -55 10 -26 16 -3 20 12 23 -40 -7 7 -17 26 -33 -6 -13
3 -4 -27 11 5 20 9 7 17 19 -19 -99 -7 7 -57 24 -50 10 -17 11 7 3 13 14 -28 -13 39 -29 21 -16 -35 -15
8 -15 -45 11 -15 -1 -7 6 14 26 -13 -81 -23 14 -53 19 -37 37 -10 38 -14 18 18 25 -1 4 17 -8 20 -9 -18 -13
11 -10 -34 26 -11 5 11 5 2 12 3 -102 -20 4 -29 39 -35 31 -21 19 2 -18 30 21 26 -2 16 -1 5 0 -7 -13
11 -4 -4 22 24 8 7 8 16 23 -2 -92 -4 12 -14 28 -20 19 -30 -6 3 -29 21 32 9 20 11 14 -3 0 -8 -18
25 10 -2 18 16 18 -2 -7 21 -1 -10 -57 -18 16 -1 17 5 16 -8 11 10 -10 18 14 24 30 30 -2 -8 -8 -15 -17
6 8 -12 24 15 38 13 1 8 11 -8 -39 -9 21 -27 4 11 23 -4 19 13 19 19 26 13 7 15 7 -14 17 -4 6
-8 15 11 32 42 12 -6 4 14 -11 4 -17 -1 52 -10 -10 0 33 1 24 9 8 -15 24 29 -17 10 5 -4 19 14 9
-7 33 12 9 29 12 1 -7 17 -15 42 2 -7 48 -7 -28 17 31 13 19 21 7 -18 19 37 -26 16 -4 -22 -7 15 -11
3 22 27 -5 23 -14 5 -11 -2 9 57 14 -4 37 16 -26 0 28 33 15 15 5 -24 5 30 -27 6 36 -20 4 23 2
2 29 26 -21 24 -1 -3 -22 8 10 43 -5 23 17 36 -24 10 19 38 1 21 -12 3 -10 22 7 -7 37 -19 7 7 -4
2 32 -7 -14 23 -27 -11 -12 -14 1 -5 -16 25 9 24 -12 0 18 45 11 4 6 -7 24 -3 6 18 39 5 25 6 -14
-21 16 1 5 25 -16 5 -34 3 13 -5 -16 10 20 37 -16 4 36 18 -5 -6 -12 -21 35 -19 2 21 21 7 2 11 -29
-1 38 2 30 5 -5 14 26 1 18 -31 -14 22 4 14 -15 1 5 3 14 -3 7 0 63 -16 2 21 -14 -26 14 8 -21
-2 3 -9 23 4 6 13 20 -5 3 -20 -8 4 -7 -43 1 -11 -6 -21 20 -4 17 -1 30 5 6 2 -49 -14 35 -1 -33
10 -6 -10 12 13 26 14 24 -13 10 -38 -19 -9 -13 -71 -14 8 9 -10 14 -17 16 -1 -7 -9 23 20 -42 -20 35 -10 -11
11 -5 3 17 1 4 8 19 -10 13 -37 -7 -6 -22 -70 13 6 -11 -22 17 -10 16 -9 -25 3 27 0 -44 -31 20 -13 -3
14 -23 -31 20 27 26 12 15 4 26 -30 -20 -21 -32 -40 19 17 -2 -20 9 -18 -3 2 -17 6 33 28 -49 -7 39 -2 8
-9 1 -43 -9 22 15 7 16 -14 36 -25 -15 1 -20 -29 31 11 -11 1 -6 -5 -32 -1 -21 5 36 47 -40 -23 36 -3 -4
0 -13 -62 -5 27 17 0 20 -8 25 -9 -4 3 -19 -8 38 20 -17 -20 8 12 -9 6 8 18 35 39 -24 -1 21 -4 11
0 -52 -35 -22 -4 -5 -33 16 26 19 17 -5 15 -10 -8 18 49 -55 -7 50 -4 -30 -18 15 17 13 30 -6 0 -2 -12 37
-11 -10 -33 4 1 23 -12 -18 63 -1 -4 19 28 48 -8 9 25 30 12 16 -18 -40 -45 -8 -2 11 25 28 -33 10 -32 -2
16 -9 -38 -40 39 18 38 43 13 38 2 49 26 33 15 -35 22 40 11 15 -16 -17 -13 50 -28 26 30 52 19 -56 -2 -7
22 -22 -39 -33 1 27 3 50 22 -1 19 39 19 46 18 -21 0 15 -8 34 -24 -30 -11 39 -42 28 31 36 23 -11 26 14
8 16 -10 -16 0 4 -15 6 -18 18 -7 14 9 9 23 -17 -7 -11 -7 1 -10 -4 16 -2 -8 4 -9 11 -2 11 21 -5
-15 8 31 -26 4 -14 30 -12 -21 17 33 -21 15 -6 -23 24 26 -20 32 16 31 22 15 -25 3 -2 10 -3 2 -28 19 6
3 7 14 -23 23 -7 35 -25 13 8 37 -35 23 -7 27 -4 26 9 6 8 6 -9 19 -2 1 7 16 -21 14 -23 45 -4
25 -4 -32 -45 -11 -32 15 0 7 24 14 -25 0 40 -6 -9 22 11 28 49 17 -16 26 16 -17 -16 36 -28 22 -39 15 5
5 -19 -12 -12 2 -17 4 34 -7 11 -3 -68 -10 6 -21 9 -62 -2 -15 54 -8 27 6 23 -42 -26 14 8 16 -21 -19 -6
12 -33 -23 15 15 9 6 9 13 -5 5 -101 -8 5 -52 23 -75 9 -26 42 5 23 13 24 -9 -21 10 3 28 -19 -14 -19
17 -18 -35 12 14 22 -1 0 5 13 -10 -84 -15 23 -48 -6 -72 17 -20 25 -8 -17 9 17 -7 11 27 8 0 2 -19 -30
-23 -6 -29 4 26 16 -10 13 15 32 -11 -62 0 7 -33 15 -56 24 -30 11 -9 -14 -1 26 -3 31 24 -1 -13 22 2 -28
-30 20 1 28 27 36 4 5 1 8 1 -54 -17 12 -10 25 -44 25 -40 -16 -8 -22 14 14 9 31 13 15 -7 17 -4 -14
-13 17 -27 18 35 48 0 -11 17 2 15 -12 -15 19 8 19 0 9 -14 -6 5 -32 10 26 16 34 36 0 0 17 6 14
1 5 7 15 22 35 -6 -10 16 -5 21 -3 -19 40 7 4 12 21 -10 12 -1 -21 -6 -2 9 0 8 14 8 21 8 16
-2 18 12 37 24 29 -6 -6 20 -6 33 2 -14 57 2 -18 26 22 -2 2 -5 -5 -48 13 31 -5 16 8 -15 17 9 15
-3 36 26 -3 26 -4 1 18 13 -16 27 27 -12 48 20 -21 20 32 24 15 31 13 -29 8 17 -29 17 8 -13 -2 2 12
4 33 16 -18 33 -43 -12 3 1 -3 52 35 11 14 16 -32 9 27 27 8 16 -4 -3 -11 25 -9 -1 22 -3 -14 19 11
-22 35 10 -16 21 -40 3 -8 16 26 22 2 10 23 29 -33 7 20 24 16 -4 -8 -10 5 30 -11 19 40 -11 10 5 -1
-20 24 -13 -1 11 -22 16 -10 24 22 -8 -2 23 5 12 -15 -3 14 15 0 21 -2 8 33 -2 -7 23 23 -17 16 -5 -29
-13 24 13 5 0 4 -1 -11 12 7 -9 3 4 28 19 -13 -5 32 0 7 1 -2 4 58 -7 0 28 6 0 7 -10 -29
6 25 -9 37 -4 12 15 32 -2 3 -31 -11 5 8 -31 -13 -15 18 -20 13 12 -7 -9 65 -2 -6 30 -35 1 15 -5 -36
7 -5 2 23 4 -12 15 22 -15 7 -38 4 2 -8 -49 -7 12 0 -16 11 -3 21 -20 14 -1 14 28 -62 -21 -3 10 -16
20 -15 -7 -1 36 -14 19 4 -23 -5 -17 -6 3 -11 -42 -7 5 -9 -19 29 -2 9 -5 0 8 25 38 -56 -26 -5 2 -15
5 -4 -11 0 1 -12 20 32 -3 1 -39 -10 -7 -28 -40 11 3 0 -6 5 -7 10 -16 -12 -5 16 41 -45 -28 8 -12 3
15 -13 -55 -25 17 0 28 12 15 25 -11 12 16 -9 -25 28 18 5 -25 3 -17 -29 7 18 -3 34 51 -16 -31 14 -2 20
-7 -19 -28 -19 -4 9 -6 15 -19 26 -7 10 -19 15 -17 31 17 -18 -7 -3 -1 -50 -3 5 -4 33 45 -1 -14 1 -3 32
-3 -11 -36 -17 16 0 6 0 11 20 12 -1 0 -21 7 18 33 -12 18 -2 4 -33 -6 -6 -7 41 37 -36 -23 3 -17 17
-1 -23 -26 -35 7 -10 1 -3 14 14 45 4 5 -16 14 10 58 -25 10 38 0 -50 -11 -21 7 25 32 -22 -5 -12 14 26
16 -45 -47 -12 5 2 13 -34 102 -38 14 53 15 64 -11 -5 34 53 5 59 -4 -74 -53 8 -9 -20 48 50 -4 11 -23 12
18 -8 -35 -31 16 29 18 43 44 -10 3 41 18 36 23 -40 25 31 -10 18 -35 -42 -27 58 -51 -4 28 72 18 -29 1 -7
6 -24 -23 -48 7 38 6 33 39 13 27 42 1 22 20 -24 -3 11 -23 27 -22 -23 -13 17 -29 13 30 18 10 -6 18 16
-3 0 -8 2 -12 -11 -3 -12 -4 -6 -11 5 -1 6 6 -6 10 2 4 2 2 -11 10 -9 -8 -6 7 -10 1 -1 -10 -5
-23 16 13 -38 26 -6 34 12 -9 -2 27 -6 20 0 -9 10 9 1 27 -3 1 8 -3 -14 0 -14 -2 -9 5 -20 20 6
-13 14 -8 -23 21 -4 38 -12 2 10 15 -9 54 -5 5 -11 19 14 4 7 9 8 26 12 -7 30 21 -14 -13 -24 41 -7
23 -22 -24 -29 -24 -24 -6 13 -1 27 35 -19 1 24 -5 -2 17 -4 27 59 6 1 3 -3 -51 -27 27 -2 39 -12 15 9
23 -17 -10 -26 -11 -3 5 28 -2 7 15 -71 27 5 -44 -10 -60 1 3 34 0 7 39 17 -24 -26 20 14 23 -27 4 -10
13 -25 -19 -1 13 -8 4 -10 7 2 -2 -65 -16 -10 -58 18 -84 2 -5 31 10 11 5 22 -2 -41 7 5 4 -22 -19 -22
10 -22 -46 0 7 28 4 -17 -24 10 -6 -35 -17 10 -56 -1 -74 18 -10 33 12 -8 5 33 -10 -13 2 22 3 -13 -20 -19
-21 15 -13 7 21 24 20 -10 -15 6 4 -8 -20 0 -31 19 -73 27 -22 17 11 -22 0 16 -11 20 18 2 -19 0 -27 -15
-5 -11 -10 26 11 41 4 2 -6 -3 -11 7 -3 28 -10 14 -55 9 -23 5 -2 -21 -11 21 7 4 13 -18 -28 -7 -20 -3
-5 -7 -15 12 15 62 5 3 12 -28 3 12 -10 31 2 12 -83 2 -29 -21 3 -3 -10 7 3 21 14 0 -28 5 -21 6
2 -3 12 16 9 48 -10 1 12 -27 32 -9 -21 36 14 -6 -56 19 -59 -6 -9 -7 -32 18 28 -26 -3 20 -6 0 9 28
-10 -2 15 22 12 6 -11 8 16 -55 22 22 7 46 11 -6 -40 19 -31 -2 2 -11 -32 15 23 -40 18 21 -18 16 0 16
-1 30 23 4 22 -50 -3 21 15 -43 24 26 11 15 21 -24 -26 37 -9 -4 -3 -4 -39 -1 29 -19 -7 20 -11 19 37 0
-6 19 -4 -13 9 -46 -12 8 10 -3 22 23 -5 5 17 -57 -31 30 6 -15 -10 -9 -17 -3 15 8 -1 36 -18 3 35 -10
-22 26 11 2 11 -21 -4 -17 13 33 -3 12 13 14 9 -21 -9 10 -4 -4 0 -1 0 7 42 -14 13 42 -5 18 16 -31
-12 15 4 1 4 -12 -3 1 8 19 -31 13 1 12 4 -2 0 23 -10 -7 -2 11 -12 59 5 -20 24 8 -3 1 -1 -41
3 20 5 16 -22 -4 13 2 14 3 -12 3 0 22 -11 -5 -3 9 -27 9 20 12 7 33 23 12 43 -44 7 19 -6 -49
8 12 16 21 -9 -9 11 27 4 -6 -18 13 -9 -13 -32 -1 -1 5 -6 14 1 17 -12 33 -2 -5 40 -69 -15 8 0 -19
-8 -8 8 26 4 -12 21 9 -9 -2 -29 13 -16 -21 -44 13 -6 -7 -9 25 -14 17 7 15 23 12 54 -37 -22 3 -3 -11
-3 -29 -4 1 18 0 -3 5 -21 -25 -7 -8 -2 -10 -33 13 6 -3 -12 11 -6 19 -12 -6 6 13 43 -42 -29 -3 -3 18
-25 -13 -18 16 -4 -7 3 14 1 -25 3 -12 1 -21 -2 14 3 -4 -10 -5 1 -3 12 -12 12 15 22 -8 -41 10 -13 7
-25 -4 -32 -16 1 -3 0 17 -6 -16 -14 8 13 -21 -16 15 12 -13 9 -10 7 -40 -1 15 0 21 48 -3 -23 4 -6 14
-23 -20 -43 -22 -8 18 5 7 6 -9 -5 2 -6 -5 -13 29 23 -20 -2 -25 0 -59 5 2 4 33 31 6 -36 12 1 24
-23 -11 -47 -14 24 -5 -13 8 7 31 25 -11 -13 -29 -9 21 31 -3 -2 -19 8 -24 0 -10 -4 32 25 -15 -41 -1 -22 3
-16 -13 -44 -19 19 -1 -10 7 20 8 34 22 0 -12 4 -5 24 -9 -2 -2 7 -9 4 -8 28 13 0 30 -14 12 -16 -16
33 -30 -35 -18 24 21 15 -8 58 -11 -11 51 -6 18 33 2 -13 19 -57 32 -78 -39 -25 26 1 -36 16 72 8 46 12 -2
-1 5 -27 -12 21 13 25 24 -1 -4 4 27 21 6 13 -42 4 0 -18 3 -47 -4 -11 36 -20 -15 -5 69 35 -6 25 -25
26 -37 1 -61 -17 38 0 14 35 -16 19 33 5 4 21 0 -28 -8 -14 16 -12 -29 -10 5 12 -10 16 26 32 8 46 34
-5 28 -15 -3 8 11 -8 27 -20 18 -1 5 5 28 12 -3 6 -10 -30 14 -20 18 18 4 -17 -7 -16 10 22 17 35 -8
-5 24 8 -19 30 -20 40 10 -17 12 23 -16 22 -3 10 -12 -7 -3 13 4 -22 -1 -7 -2 3 31 0 -14 11 -3 39 3
-26 20 -11 -13 22 -16 18 -1 -2 18 5 -37 57 -23 -4 9 18 -9 14 -11 -5 3 15 7 -15 46 -1 -28 -14 2 40 -14
25 -4 -30 -23 4 -26 22 -8 -12 15 12 -8 12 22 4 11 41 2 34 55 -2 14 18 18 -52 -23 24 14 -1 -48 43 0
19 -39 -27 -11 -17 2 3 12 15 -25 24 -16 12 15 -21 -13 -23 -6 25 19 8 14 28 30 13 -13 20 10 6 -19 -7 -12
16 -19 -15 -29 -6 4 -3 -2 -12 -28 3 -14 -4 8 -54 7 -49 1 28 30 35 25 -4 35 -18 -20 6 7 6 -35 -11 -28
22 -15 -32 -9 -26 20 -6 -11 -29 -10 -17 4 -27 33 -37 3 -71 15 29 23 34 17 -17 12 -39 -5 2 -6 -1 -15 -21 -26
0 -24 -30 -1 -15 38 4 -4 -11 -26 0 12 -18 38 -42 5 -68 20 4 22 11 16 -32 14 -13 -16 27 13 -14 -3 -34 -12
11 -26 -15 3 -21 39 16 9 -6 -13 -17 19 -7 20 -14 10 -61 -5 -8 29 12 20 -17 -1 0 0 5 -12 0 -15 -22 -6
-4 -18 -8 -5 -17 68 8 -14 0 -14 14 10 -9 29 4 22 -102 3 -24 3 20 2 -42 -10 15 -1 -5 14 -4 -2 -21 -20
-9 -21 -9 17 -14 26 0 1 6 -43 22 0 -18 26 17 4 -127 5 -33 4 17 -12 -33 -1 -5 -19 -7 15 -4 10 7 10
-1 -4 -1 -4 3 -41 -12 0 2 -72 11 8 4 15 12 -13 -118 -6 -20 2 23 4 -41 -20 13 -23 -14 38 0 10 19 -5
19 -9 -7 10 14 -72 -7 -18 16 -64 8 25 24 4 -2 -37 -110 29 -45 7 21 4 -9 -19 29 8 10 36 -23 -10 11 -16
-15 9 2 7 8 -45 -19 -28 22 -13 -1 31 22 -1 -3 -62 -77 42 -16 0 6 13 -4 -3 17 2 -1 19 -13 16 14 -47
-25 -3 19 -4 -7 -7 -2 -22 13 30 -16 23 4 20 14 -17 -28 22 -41 1 -9 23 4 27 14 -36 9 12 -17 -3 -5 -56
-8 4 5 3 -28 -24 11 -6 4 5 -9 5 -8 -2 -16 9 -4 17 -12 3 -7 18 -7 31 23 -7 24 -20 -6 11 7 -34
17 -13 6 19 -11 -16 19 4 9 8 6 -1 13 -8 -17 14 -4 14 -11 23 11 37 -16 18 6 6 42 -60 8 -4 2 -27
26 -13 31 12 -1 -23 2 14 -2 -10 0 18 4 -4 -26 9 7 -9 -9 28 2 14 -13 11 6 4 31 -31 -2 -1 6 -6
5 -25 10 -6 9 -18 -1 1 2 -27 -21 -1 0 -8 -33 -1 -8 -9 5 16 -18 6 -3 -13 11 4 45 -19 -4 -6 12 11
-3 -18 -16 -6 5 -7 0 15 6 -22 9 -5 5 -4 -18 12 24 -12 8 -9 -17 -14 -8 -8 -3 26 20 -4 -4 3 4 11
-21 -17 -27 -5 -19 -16 5 -3 -9 -20 3 -8 10 4 6 28 27 1 2 -6 5 -23 -15 3 -8 34 1 15 -10 6 -9 14
-37 -15 -60 -15 2 8 -7 13 0 14 2 4 -7 -6 -15 23 29 -7 -9 -9 -7 -38 -4 0 -7 31 29 11 -25 -5 3 25
-20 -41 -77 -28 -9 7 -14 24 -6 -4 7 1 -16 8 15 12 16 -15 -11 -5 -17 -58 -14 -10 -38 32 17 24 2 1 4 22
-26 -42 -58 -21 -4 29 -4 -13 20 -3 32 4 -11 20 1 1 15 -1 -7 -17 15 -50 9 9 -19 19 -3 15 -12 4 -12 6
1 -51 -58 -36 -4 26 -20 -15 41 16 25 24 -13 12 23 -11 22 23 3 7 8 -35 26 7 6 -23 -4 40 -10 -3 -1 -2
16 -53 -28 -36 12 33 -19 -3 54 14 34 41 20 34 26 -10 17 10 -30 51 -49 -25 -24 9 9 -49 -6 72 29 19 40 19
14 17 -16 -13 11 33 3 14 -13 19 16 36 18 5 51 -34 -34 -7 -19 21 -40 23 -25 24 -6 -18 -13 69 29 -5 41 -9
10 -27 2 -24 6 18 -7 1 47 32 30 28 0 15 38 -25 -13 11 -23 11 -23 -6 -14 21 4 -5 15 41 28 -19 17 22
0 0 21 -17 6 13 3 -9 -5 12 5 4 9 6 7 0 9 1 11 -12 -15 -15 -2 9 3 6 -13 11 3 2 2 -3
-26 4 1 -21 -1 17 14 43 -14 16 23 5 29 -21 23 -2 16 -20 -22 -22 -21 17 26 -15 24 -9 -20 5 31 14 24 -7
-10 23 -16 -17 11 -9 -3 23 9 3 -15 6 4 -10 -8 13 6 -19 -4 -9 -8 -3 8 0 3 -22 0 -22 -9 -5 -5 -2
2 -8 -37 -21 31 -38 20 9 -13 -16 -11 -5 3 4 -7 19 43 1 36 32 0 8 -7 11 2 -15 30 -8 -18 -51 20 -10
13 -15 -35 -6 -17 -20 -2 14 -13 -31 17 3 14 10 -31 7 -6 -2 34 7 20 8 1 14 -13 -18 12 9 3 -10 19 -16
16 -24 -26 -19 -40 -7 13 -3 -41 -64 1 4 4 9 -55 -9 -29 17 24 7 26 15 -8 3 -8 8 15 -18 22 -34 -12 -11
4 1 -13 -17 -13 15 1 -29 -35 -38 -3 25 -2 5 -16 12 -23 24 22 -3 21 22 -15 -10 -10 -16 12 -13 15 -13 -1 -21
17 -17 -13 -17 12 33 11 -19 -8 -33 7 27 0 21 -7 18 -52 8 10 7 7 5 -28 -11 -6 -16 20 2 9 -11 7 -8
2 -18 -17 -10 -29 52 20 -32 -8 -37 2 17 0 -5 -6 15 -34 5 11 26 14 6 -28 -15 4 -7 8 -21 13 -7 -16 -8
2 -39 -13 -5 2 68 17 -34 5 -24 13 18 10 13 14 7 -58 -15 3 18 5 1 -33 -17 5 8 3 18 3 -12 -14 -5
-3 -9 2 3 -19 13 0 -11 26 -32 22 11 8 19 19 7 -76 -5 -7 21 10 -24 -32 -23 16 2 -3 25 19 -1 -6 11
18 -24 1 -8 1 -62 -14 -5 32 -55 -13 17 -5 -7 -14 -4 -65 -1 -25 15 10 -21 -39 -30 23 -26 5 44 11 -8 -4 -25
9 -11 -9 2 -12 -42 -21 -9 12 -41 0 11 12 -12 -11 -19 -48 5 -45 31 0 -8 -18 -41 33 5 -7 30 17 13 13 -18
-1 -22 -10 -2 -8 -8 -15 -30 19 -17 6 23 13 -11 17 -41 -46 22 -26 39 -4 11 -5 -14 25 -3 -14 24 32 3 4 -22
-5 -9 1 -4 -2 -18 -2 -15 17 18 -14 11 9 -3 -7 -11 -17 21 -37 32 -4 34 9 9 5 -8 12 -12 11 11 -2 -37
12 -21 22 -6 -9 -20 14 -20 28 23 14 20 19 13 -8 13 7 4 4 30 8 18 -19 9 8 -25 23 -24 6 10 -7 -18
25 -14 14 -1 4 -20 4 3 2 22 3 4 0 10 15 19 11 20 7 16 -1 -1 -17 3 -2 -9 24 -32 -4 -10 2 -3
-1 -3 13 -6 10 0 -5 8 21 -4 17 -2 7 19 -1 16 7 -7 9 27 -8 13 -14 -18 -17 -3 40 -19 12 -4 4 28
0 -10 20 -1 -4 -16 -2 9 9 -15 17 3 -14 8 -19 17 22 -4 27 9 -11 -5 -4 -13 -1 18 23 -8 -3 -15 22 12
-13 -7 -4 8 -16 -5 1 0 -10 -10 1 -6 -6 9 3 20 20 14 23 1 6 -23 2 -8 -12 18 3 -3 -8 -10 17 13
-20 -30 -25 -6 -12 -4 5 15 7 -15 24 -4 -4 -3 7 26 12 9 10 -7 15 -37 3 -18 -12 32 -1 20 3 -15 6 27
-31 -31 -48 0 12 20 11 13 18 -17 18 -10 1 26 -18 12 16 20 3 -4 4 -51 -12 -5 -41 30 1 17 -24 -3 4 19
-24 -31 -74 -18 -17 40 -17 -6 28 -19 33 -20 -29 40 3 2 2 -4 -1 -1 -1 -78 -12 -12 -43 31 -11 12 -8 -8 25 34
-38 -35 -56 -48 -14 34 -13 -8 28 -26 26 3 -27 59 8 -7 25 18 12 -16 21 -61 3 35 -33 3 -12 33 -10 -18 -7 17
-5 -35 -13 -31 7 -15 -10 10 12 3 28 19 -9 24 4 8 38 10 9 3 7 -41 21 17 -13 -3 -27 35 7 -21 -13 4
15 -62 -4 -32 18 6 -6 -28 16 8 39 35 -7 20 8 -16 52 17 -34 11 -42 -3 -17 18 -13 -27 -16 81 36 -51 34 5
8 1 -12 -18 -24 33 -1 21 39 16 12 24 18 26 49 -35 -12 18 -12 8 -50 9 -21 34 -11 -18 14 54 23 -28 27 22
-3 -24 -14 -8 21 13 13 -8 38 18 1 23 6 3 9 -16 -19 6 -8 -1 -15 -26 -8 -17 -4 -23 28 17 15 -14 21 1
1 11 -3 -10 8 0 7 11 3 -6 5 -5 -1 -7 11 -2 -11 -6 5 -13 2 -7 -4 -8 8 10 10 4 7 4 -2 1
1 -23 -2 8 -17 27 28 28 -6 9 28 -20 9 -25 -2 -10 0 2 7 -18 27 9 -4 -24 12 -15 -27 -16 11 18 -1 20
2 -21 -13 -18 -6 4 14 5 19 -1 -6 21 -2 23 -25 17 13 36 -14 -4 16 -16 2 25 7 -3 15 -25 13 0 -24 -9
11 -18 -37 -21 32 0 41 21 4 -31 3 21 18 19 -24 -12 42 29 21 25 -5 -15 -30 -10 -9 -18 35 -27 13 -31 11 7
-1 -16 -37 -8 -10 7 19 25 -2 -57 19 11 8 29 -35 16 12 -9 30 15 -8 3 -40 -1 1 -27 10 -11 32 -9 10 -4
13 -28 -1 -7 -42 17 1 27 -16 -78 8 25 -12 18 -53 -3 -8 -11 36 30 8 1 -8 -24 5 -9 14 -25 31 0 -17 15
2 -18 -11 -26 -2 22 13 -13 -19 -39 14 23 -4 -3 -9 -6 1 -13 32 14 0 12 -16 -37 -14 10 4 -22 26 -23 19 -5
5 -3 -22 -35 3 18 22 -39 -16 -13 14 32 -2 26 10 0 -18 0 20 12 14 6 -40 -44 1 17 15 -6 24 -6 16 4
-1 -32 -11 -18 -6 40 6 -20 3 -25 22 39 -17 -11 13 21 15 -7 23 19 33 3 -30 -19 -6 -3 16 -2 19 -22 -9 11
6 -23 -7 -6 -11 23 12 -18 11 -1 14 37 -17 0 1 30 19 -12 7 24 10 -7 -20 -29 6 21 6 -3 21 -4 -8 24
-3 -20 7 -8 -18 21 -4 -27 42 -36 17 5 -5 -13 2 0 0 -6 -10 25 27 -25 -18 -32 9 19 -2 23 10 19 -1 0
6 -33 -4 -19 -14 -46 4 -31 29 -41 6 16 -5 -11 8 -11 11 3 4 29 3 -14 1 -22 34 -5 7 30 28 11 -2 -2
0 -25 -6 4 -1 -36 -3 -13 27 -30 2 24 10 -33 -2 -7 0 10 -30 21 -2 -20 11 -34 42 -16 -13 29 21 -1 -15 9
2 -12 20 -7 -24 -7 -5 -24 20 2 15 18 4 -23 -2 -16 -14 14 -2 48 -5 14 9 -10 18 -9 -24 1 23 17 -2 5
4 -8 19 -4 13 -31 -12 -19 26 20 14 19 29 -1 -8 16 4 9 -21 28 -9 7 5 -30 9 -8 -21 -29 13 11 7 15
10 -8 20 -9 -2 -27 0 -14 11 3 23 27 7 17 -2 22 20 19 13 17 6 7 1 -23 8 -9 14 -8 8 9 -3 15
26 -5 21 -17 14 -30 3 -10 18 26 19 2 -3 4 10 24 14 17 24 5 -3 -1 -21 -25 8 -3 2 0 10 -12 1 19
-1 -11 22 -12 17 -35 -2 10 17 29 19 -5 -4 6 -5 30 25 8 19 -11 13 6 1 -25 -21 -5 9 22 10 -30 -9 27
14 -31 7 -17 10 -16 13 -6 22 3 46 12 -17 13 0 29 23 19 25 3 -6 -23 1 -42 -7 18 4 -8 -1 -30 -5 35
-12 -25 -10 -13 -6 -18 5 17 23 0 35 11 0 6 -8 35 32 10 13 -21 -8 -40 9 -37 -17 -2 -1 17 -6 -16 4 27
-17 -24 -27 -10 1 -24 26 4 19 -19 32 -10 -3 18 0 3 30 15 20 -13 22 -67 -21 -22 -29 30 -1 20 1 -13 -1 26
-18 -16 -52 -11 -8 1 27 1 20 -26 53 -13 0 23 -7 3 11 10 -4 -12 4 -43 -6 -3 -35 17 -14 13 -7 -12 7 27
-27 -25 -53 -32 -15 17 3 -17 21 -11 36 -15 -42 33 12 6 36 22 1 -18 26 -61 7 -6 -49 -7 -24 18 5 -26 14 11
6 -37 -29 -37 -14 8 18 6 14 -3 32 -1 -22 40 11 -5 34 13 11 -23 6 -50 10 -1 -57 7 -23 8 16 -42 4 24
12 -38 -13 -32 27 -5 38 8 -8 -15 27 1 12 27 13 -1 40 -1 -20 -9 -20 -34 2 23 -27 -27 -29 48 19 -19 4 -18
12 -31 -11 0 7 -20 8 -14 -22 -11 31 45 -18 18 -6 30 45 -3 -39 -10 -10 -19 -25 7 -18 -57 -42 71 20 -25 10 14
8 -35 -9 -21 3 13 4 -5 28 17 29 -1 17 25 34 -21 1 21 -25 2 -52 20 -16 8 1 -13 11 39 34 -14 50 -6
-18 -27 -1 -12 13 -12 2 7 -2 -1 15 -13 1 -7 10 0 9 -11 12 -2 -12 4 2 -1 5 -5 -2 16 11 -11 14 -11
-10 -13 14 -7 12 -9 -3 -12 0 8 17 -22 -9 7 14 -11 6 -1 3 -16 -9 -21 0 2 11 1 -4 9 13 -20 19 -14
20 6 -19 -26 12 19 7 18 18 20 9 -9 8 -3 -4 -13 10 -2 4 4 -13 -17 -2 -11 8 26 16 8 36 -4 21 20
49 -4 -7 -48 2 4 51 -29 5 -1 9 17 16 16 -10 -39 -16 12 -2 28 -11 -37 -17 13 -16 28 51 -19 71 -17 28 44
27 -31 -22 -25 25 13 57 -12 13 -17 26 8 20 15 -23 -25 44 9 -7 8 -7 -31 -26 -6 -13 -3 38 -1 45 -33 34 9
-14 -5 -15 4 -2 1 17 -10 -22 -32 32 11 3 27 -28 4 38 -2 18 -22 5 -14 -24 9 -17 -28 0 6 21 -10 7 0
-2 -13 -4 -14 -5 17 11 7 -21 -39 -16 20 -27 11 -34 8 32 -15 30 0 -12 4 -19 -18 11 -30 -9 5 30 -11 -7 -21
7 -11 9 -23 18 23 7 -3 -28 -40 26 23 -10 3 -6 -8 16 -26 35 -3 -2 2 -36 -22 -12 -12 -20 2 25 -15 -13 -15
-1 -16 -1 -28 -1 43 15 -14 -7 -36 21 -2 1 1 10 -16 26 -13 23 8 19 19 -20 -46 -25 -14 -8 12 27 1 3 11
-13 1 3 -8 6 14 12 -27 14 -23 7 -1 -7 -1 -4 9 37 16 12 1 10 11 -26 -33 -7 0 4 12 1 -7 5 11
6 -6 4 -8 3 25 6 -47 28 -19 -12 29 -7 14 16 0 29 19 2 3 18 -3 -14 -33 -14 1 10 18 5 11 -17 7
-6 -9 12 -3 13 24 -6 -24 32 -8 7 24 0 0 27 8 47 -15 2 15 3 -1 -17 -29 -8 -10 19 -2 15 4 0 4
-2 -5 4 -12 0 -17 -7 -23 27 -8 19 4 6 4 12 -7 30 3 -3 6 10 -13 5 -16 -5 -2 7 6 5 28 -6 17
14 -1 8 7 -9 -17 -5 -23 11 0 15 15 -1 -12 -17 2 41 11 -11 9 2 -1 -4 -21 16 -22 -8 3 11 35 -9 23
16 -7 12 10 3 -26 -13 -31 24 7 26 23 2 -10 -11 -9 26 18 -13 11 1 -4 4 -8 5 3 -11 -6 21 44 -22 50
11 -25 27 13 5 -26 -13 -15 28 21 28 17 10 -5 2 21 6 23 4 9 7 -8 4 -40 4 -13 -14 7 13 31 -16 42
10 -14 26 17 1 -28 7 -7 10 22 33 20 10 10 10 30 8 7 -4 9 13 3 -1 -28 11 13 -19 6 4 11 -2 37
29 -3 -7 -4 11 -26 -1 -9 11 0 1 6 -6 25 -4 34 16 15 9 -7 3 -19 4 -31 -8 8 -6 2 8 1 1 21
11 -17 20 -1 -8 -23 1 -4 3 4 37 11 -19 27 -13 23 7 17 15 -8 9 -15 11 -35 0 14 6 17 13 -13 -12 14
11 -23 7 -4 -23 -32 13 -26 17 17 28 -5 -15 31 -14 19 9 16 8 13 -7 -37 0 -42 -9 0 -10 5 -1 -21 14 14
18 -15 -17 -6 -20 -35 13 -4 5 4 43 20 -1 15 -14 15 14 9 20 2 0 -67 1 -26 -7 -1 7 10 9 -34 16 37
3 -18 -19 3 7 -8 26 -31 15 -34 49 11 -8 1 5 10 17 16 17 -19 1 -54 23 -40 -13 4 -21 26 7 -35 -4 12
-12 -27 -46 -3 14 1 28 -4 19 -24 32 4 -36 26 12 7 38 17 0 -4 0 -45 25 -26 -32 -12 -9 42 15 -30 7 5
-9 -15 -55 -11 -12 10 20 -11 34 -36 42 11 -15 39 15 4 20 31 12 0 27 -36 24 -25 -38 2 -19 28 28 -33 -6 34
16 -28 -15 -23 -8 -6 23 -17 29 -29 20 3 8 31 2 -28 30 56 -21 6 5 -46 31 -6 -41 -25 -14 17 43 -40 1 36
35 -38 -26 -13 12 -5 43 7 4 1 16 32 16 4 2 18 37 11 -39 -6 -15 -16 1 29 6 -58 -41 63 25 -39 -17 9
9 -47 -15 -20 -13 -16 2 -24 5 5 24 21 -5 -3 0 31 23 -19 -36 26 10 -17 -7 13 -6 -36 -24 19 37 -27 4 8
9 -22 -9 -11 11 6 24 28 29 11 19 9 12 -5 -8 23 -24 -20 -21 32 16 -14 14 -15 14 -17 13 3 30 0 -5 23
-10 -11 1 0 -11 0 10 -2 8 -10 -2 9 -8 4 -13 -7 -6 -6 -1 1 8 2 -4 6 -4 9 -10 -1 5 5 -4 7
-6 -27 16 -16 18 7 11 -5 20 15 21 -18 1 -9 18 3 5 -11 -7 -27 -8 -17 -1 -9 25 8 -11 26 9 -13 21 -12
11 -3 16 -22 8 4 1 -8 7 10 0 -3 -3 -1 1 -11 -7 6 -1 -7 -16 -9 6 7 3 18 -4 2 18 -18 8 0
40 5 -18 -39 6 7 26 -12 13 26 0 2 17 8 -5 -28 -24 14 1 36 5 -13 -14 7 -16 45 53 -12 72 -7 36 28
38 -22 0 -5 -8 20 26 -30 26 -8 37 -7 -8 33 -25 -22 21 14 36 5 5 -22 -12 0 -28 40 17 12 29 -42 52 34
-2 9 -9 -4 10 8 -8 -28 2 -38 37 18 -7 20 -32 -20 48 15 38 15 8 -25 -6 -22 -34 4 1 27 15 -19 2 -9
-10 -14 8 -38 16 16 20 -13 8 -44 36 44 -5 -2 18 -21 46 -32 8 -26 -26 -22 -14 -25 9 -30 2 18 26 0 7 -2
3 -10 11 -33 3 32 23 13 -4 -31 20 19 10 -11 19 -45 16 -21 11 -28 1 -21 -17 -22 -5 9 -21 -3 25 2 8 -3
-5 2 -9 -16 -6 23 -1 13 -5 -28 6 13 2 -10 3 -20 18 -29 2 -6 21 4 -15 -17 -30 0 0 -1 9 14 -12 8
12 -3 -4 -5 -8 21 17 -21 8 -17 -5 13 -6 -8 13 -5 49 -20 -9 0 -2 -1 -29 -18 -13 -3 13 0 16 4 2 4
-5 -10 0 -6 6 45 -10 -8 13 -14 9 -4 -21 -6 5 -5 34 -1 -7 -3 0 10 -31 -11 -4 2 8 6 23 7 -17 12
15 1 14 -5 -8 40 -3 -11 29 -1 -5 4 -13 6 -2 -17 33 8 5 0 5 8 -17 -6 -8 0 16 9 14 17 -3 3
6 9 16 18 -6 9 0 -4 8 -9 10 7 -2 -6 -1 -16 29 0 0 0 33 12 -13 10 -11 -11 12 -3 9 7 -8 43
7 3 6 14 -4 10 -1 -8 11 -6 14 7 -9 -1 1 -3 28 -11 -3 -5 19 11 -8 3 -1 -20 -2 10 -2 40 -13 43
18 0 29 25 4 -2 -7 -3 27 -1 6 11 6 12 0 13 6 3 -10 0 23 -4 -18 -27 5 -24 -19 -3 17 35 -19 51
14 -9 34 18 5 -31 1 3 6 -10 14 19 13 -9 15 23 9 5 -4 -7 11 4 12 -26 -2 -16 -32 9 11 6 -7 45
26 -4 20 3 -14 -44 14 -12 4 13 21 -5 28 -18 -7 24 2 14 3 -4 10 1 6 -27 16 -1 -21 -8 14 12 -14 37
24 -11 10 13 1 -38 -14 -2 10 0 18 7 6 -12 -6 31 -4 -2 3 0 25 -6 9 -26 20 5 -14 7 17 9 -19 30
13 -11 -3 -2 -11 -22 0 -11 -5 8 26 -6 5 -9 -16 23 10 13 9 -15 4 -27 12 -18 -4 -5 -19 6 -2 -15 1 37
9 -20 -9 -7 -15 -26 7 -11 5 7 28 4 -2 -4 -11 12 4 20 17 -11 -1 -65 19 -49 -13 1 -21 13 11 -19 3 11
18 -7 -30 -7 -12 -25 13 -32 3 9 27 -8 17 3 -10 25 8 33 6 -5 12 -52 12 -56 0 17 -14 17 -4 -37 10 4
5 -21 -29 -13 -7 -18 18 -37 -3 -9 29 18 0 13 4 0 41 17 27 -4 -5 -42 -2 -35 -23 21 -28 24 -6 -34 9 24
-7 -7 -51 -14 7 -29 42 -16 18 -40 9 8 -17 18 37 0 2 38 11 -15 8 -38 18 -36 -17 0 -5 46 0 -36 10 -3
29 -22 -40 -11 -5 -17 26 4 3 -41 0 -1 -18 33 26 -16 3 25 -1 -14 7 -17 -10 -3 -9 8 -15 -2 35 -20 17 21
17 -10 -9 -14 -5 -49 18 1 -13 -29 11 -12 2 30 4 -5 32 21 -1 -12 25 -40 18 9 -25 -35 -29 6 29 -44 -7 19
30 -25 5 -2 -5 -38 8 13 -20 -1 -16 18 7 34 -18 -6 40 12 -14 -11 10 -22 3 41 -6 -58 -40 29 31 -33 0 -6
-16 -35 -7 -10 -13 -12 0 -8 9 -2 28 16 9 7 6 23 28 -13 -13 25 12 -18 -16 14 0 -50 -29 27 36 -11 -1 3
-13 -25 -2 2 27 -4 26 -11 11 16 41 -13 23 -18 -9 13 4 -15 -12 15 11 -45 16 -24 42 -4 5 -21 26 -24 -5 -30
3 -8 -8 -8 -7 15 3 -8 3 -3 3 12 9 -1 6 1 11 -8 -7 0 -2 -10 -7 3 7 8 -7 4 3 -3 -6 15
-10 -11 2 9 7 0 -10 1 -5 0 -11 -10 -9 3 -6 11 -9 -2 -2 -5 -4 5 -3 -10 10 -9 -11 -11 -1 -4 8 -5
12 0 8 5 4 2 10 -7 3 12 -5 -9 -9 -7 2 4 -2 -9 4 1 12 -7 -10 -10 8 0 0 4 -11 -12 1 5
16 -20 -6 -31 5 -18 48 -8 2 37 21 -9 10 15 -14 0 19 18 26 40 24 3 -13 -27 1 37 48 -17 35 -27 26 15
34 -6 -6 -6 -2 -19 44 -26 -11 11 43 -6 -14 16 -30 -8 46 8 43 13 39 20 17 -23 -25 23 39 -25 24 -34 56 47
-10 19 -21 -11 10 -32 -16 -10 -13 7 30 4 -3 -6 -38 -26 66 -14 50 32 19 11 31 -24 -40 9 9 -12 -4 -10 -5 7
18 -5 -7 -13 27 -12 5 6 -14 -35 4 26 -23 -20 -15 -20 49 -23 -4 1 -1 7 -8 -37 -3 -26 -4 -5 -7 -16 20 23
18 -4 -8 -10 21 20 21 31 -29 -13 -4 30 -3 -31 -17 -19 38 -28 -21 -21 -21 -5 4 -15 -8 -11 -11 2 17 2 12 31
24 16 -8 -30 30 10 18 42 -23 -23 -19 8 4 -43 -8 -32 23 -15 -7 -18 -8 6 -23 -2 -22 6 16 -19 2 7 -6 32
9 -1 -1 -13 -9 36 -4 3 19 -42 -13 13 -18 -29 1 -27 22 4 9 -19 32 3 -8 1 -13 -10 -2 -27 0 -6 -5 31
9 -10 -6 -11 2 24 3 -3 11 -20 2 17 -4 -20 0 -23 26 -14 1 -5 25 4 0 12 18 16 7 -5 19 -23 -9 30
9 13 7 -11 -13 29 -6 0 6 -2 -3 20 1 -16 9 -18 43 -22 -5 -18 25 25 -7 21 2 1 28 -13 23 -30 -12 23
23 -3 7 -3 3 19 -3 22 15 19 14 12 15 -12 -4 -1 32 -9 0 -3 30 13 -13 10 12 1 18 -9 21 -6 -1 37
8 3 26 -6 3 8 -5 19 27 15 14 12 3 -27 30 10 16 -12 1 -29 15 -13 -10 -8 16 -17 17 -4 27 -3 -19 19
23 13 27 13 4 -2 13 17 17 24 25 10 19 -27 22 2 7 -4 -3 -15 39 -6 5 -27 2 -12 -11 6 15 6 -6 30
27 16 30 26 -1 -29 -2 6 4 8 7 16 4 -19 -9 34 5 -3 -15 -15 31 -13 19 -19 19 -17 -15 -6 12 19 -13 28
26 23 7 3 -18 -19 8 -7 16 7 27 2 26 -34 8 25 3 2 -13 -24 8 -14 20 -23 4 -12 -23 -6 0 5 -11 25
26 11 6 11 -4 -21 9 5 11 -6 23 16 6 -24 -7 9 0 8 6 -22 21 -32 25 -17 -4 -19 -38 -4 -10 4 -14 27
16 9 -10 0 -10 -19 -8 -11 -4 18 22 3 -6 -20 10 20 1 19 27 -35 0 -41 2 -21 1 8 -41 -17 12 -7 1 24
17 18 -18 -6 -5 -27 12 -14 0 -1 23 10 9 -9 4 -2 -11 44 6 -26 21 -38 4 -31 -27 15 -14 -9 4 -9 14 15
35 -17 -9 4 -11 -38 -2 -17 -1 0 17 18 -9 8 17 -9 -9 39 24 -28 6 -49 10 -23 -11 13 -23 1 -4 -8 9 19
44 -14 -35 7 -16 -50 3 -36 1 -11 29 -1 -24 26 3 10 -12 41 19 -1 15 -46 -19 -44 -2 18 -14 13 -13 -9 6 0
41 20 -26 3 -7 -57 18 -27 4 -27 11 -10 -20 31 28 -28 -6 67 16 5 10 -31 -8 -37 -21 -10 10 23 -5 -21 17 17
37 0 -30 3 -16 -31 -16 -12 6 -39 25 -10 -23 46 24 -36 -16 46 21 16 0 -34 -15 -13 -45 -29 -12 1 32 -2 10 30
23 -6 -24 -8 -32 -43 -29 0 -8 -32 35 -16 4 52 28 -29 3 34 42 2 8 -25 -4 0 -16 -43 -36 -7 16 -26 -11 35
47 -26 -9 8 -21 -30 -28 16 -41 -13 5 5 7 17 2 17 26 -10 -2 -4 7 -4 -17 52 -21 -55 -32 2 26 -9 -1 26
-14 -30 14 -3 1 -30 -9 -13 0 -17 9 -2 25 0 -12 13 18 20 -3 -4 5 -29 -10 19 -15 -24 -24 2 26 -12 -9 14
-19 -12 -6 -17 28 -35 11 -35 7 11 18 -25 14 -35 4 18 6 -10 6 14 -2 -7 12 -7 13 -6 -5 18 3 -27 6 -30
-12 1 -10 -7 -8 -6 -12 4 -1 -12 -5 2 1 4 3 -9 10 -3 -6 -12 3 12 10 -4 12 1 -4 -4 3 12 -8 1
0 10 3 -12 -8 3 2 1 11 -6 -10 -1 -11 -2 -2 9 -1 -4 -11 1 9 3 3 8 -7 12 4 -4 -2 10 -1 -4
10 4 -3 2 12 -12 6 3 -11 -10 3 -10 3 -9 -6 -6 3 -2 -10 11 -11 -3 -3 -5 -10 -7 12 -2 7 -12 -3 -2
-18 4 5 4 13 7 1 12 -21 9 12 -3 12 1 -12 -4 -7 9 24 13 6 23 -4 -4 12 27 20 -18 -15 -6 -5 -8
0 32 -3 -22 20 -50 26 25 -55 -7 19 -20 49 -29 -52 -2 31 -18 45 32 32 46 21 -26 -2 12 -8 -48 -1 -30 26 29
-4 42 -19 -8 34 -55 -7 71 -34 17 9 -7 21 -34 -26 -17 52 -25 -2 35 -15 62 -9 -25 -28 20 -8 -26 6 2 71 22
-30 28 -14 6 22 -37 -21 47 -33 7 -21 -16 6 -30 -8 -5 35 -29 -16 -12 -26 49 -12 -20 -31 9 -20 1 -24 19 42 -7
-21 26 -14 -19 23 -16 -23 32 -22 9 -12 5 29 -31 -33 -10 42 -23 -8 10 -24 35 -11 -23 -45 18 -5 -20 0 -8 38 36
-2 39 -17 -24 16 9 -10 48 -37 8 -23 -5 1 -14 -10 -24 52 -24 0 -2 -15 28 -4 -3 -49 33 17 5 -3 -9 16 31
11 25 11 -12 12 11 9 23 -36 -3 1 -4 -3 -5 -3 -9 37 -12 8 3 13 21 -8 -14 -40 19 0 -6 -18 -19 -4 28
-5 -6 6 -6 27 20 -8 8 -10 -13 9 19 -17 -13 -28 -14 31 -17 21 -5 18 21 -3 10 -13 9 0 -8 2 -41 -11 29
3 22 10 3 12 32 6 11 -16 -1 4 -2 -14 0 -5 6 30 -18 20 -15 17 14 -14 -1 -15 -1 9 -12 -11 -36 -17 -1
8 17 11 13 14 30 -11 -3 -5 16 -3 8 12 -18 -9 -1 12 -13 15 -16 36 13 4 -3 -17 -7 13 3 8 -25 -8 8
9 17 14 6 7 29 -15 5 -14 5 24 0 5 -20 1 8 12 -22 -10 -5 48 0 -1 -9 -22 -5 -35 0 19 5 -31 20
11 16 10 5 10 0 6 17 2 24 18 22 1 -26 -6 11 4 2 1 -6 58 23 5 -18 -13 8 -33 -12 -5 -14 -18 27
16 15 10 -5 5 -12 3 0 -13 10 31 36 4 -26 -11 6 -3 19 -8 -10 45 -12 28 -11 2 8 -17 -25 7 -23 -9 40
15 22 17 12 -14 -23 8 7 -13 -1 17 28 8 -11 2 20 -15 -2 -12 -17 29 -10 0 -19 -24 -16 -21 -20 -1 1 -22 36
11 27 27 19 -3 -36 7 0 -24 -6 9 10 5 -18 -13 2 -7 20 26 -27 17 -15 5 -9 -29 0 -16 -27 -2 -7 -13 34
16 -11 18 -16 -4 -19 -9 2 -23 32 -3 30 -31 -14 -7 30 -12 -1 9 -16 9 -22 12 -6 -20 -16 -34 -16 34 -21 2 44
21 -13 17 -6 -7 -30 8 -6 -23 0 9 32 -17 -9 -7 13 -28 24 17 -28 13 -46 10 -1 -39 -8 -27 -11 2 -3 -12 32
19 7 -7 13 -48 -41 -23 -21 -36 -15 17 27 -20 -19 10 9 -29 15 25 -27 24 -43 2 -3 -11 -14 -22 -6 -27 -5 -1 7
41 25 -30 29 -29 -38 -32 -10 -47 -10 -7 9 -19 -3 7 24 -18 12 50 -6 3 -39 -2 -1 -18 -30 -4 -9 -21 -4 -2 -19
37 19 -36 5 -3 -34 -25 -8 -23 -2 -18 5 -32 19 26 2 -9 19 30 32 7 -48 -7 11 -5 -29 -13 11 12 -13 2 2
22 -8 -23 7 -8 -25 -44 9 -15 -3 1 -12 -21 17 10 7 -10 38 21 -11 16 -6 11 9 -16 -52 -16 -2 20 -33 -10 26
32 11 -10 22 -17 -10 -23 -9 -23 -19 2 -26 -8 21 16 1 -14 44 45 -28 -6 -16 -19 -1 -19 -54 -32 -6 4 -4 23 11
52 -41 -16 -14 -18 -17 -15 -3 -12 -7 33 41 -8 12 3 14 0 -9 -13 14 6 -8 -8 50 -16 -35 -15 14 46 -13 20 54
26 -26 -12 -19 -2 2 20 -22 11 19 17 31 17 27 15 -22 -4 24 -40 11 -28 -20 -40 24 17 -4 20 14 31 -20 29 32
5 -8 -13 -9 7 -9 9 -9 17 13 7 14 15 9 18 -4 18 10 -10 -3 -3 -13 -10 5 25 -5 12 12 2 -10 18 11
10 -11 3 10 8 -7 -7 -6 2 -4 -8 -2 7 3 -3 -4 10 5 9 3 -12 -1 -8 2 0 10 1 -10 2 -6 -1 11
0 1 11 3 -10 10 -11 -3 -12 5 12 -12 -2 10 3 9 -7 4 9 -1 -5 4 4 -6 6 7 3 4 2 9 11 10
-11 -5 -4 -6 -3 -4 -1 6 -9 -9 -1 2 -2 -6 -1 -9 -7 -13 12 -3 -3 2 9 -2 -7 3 2 -2 -6 5 -1 7
29 -7 -3 2 -19 5 3 -23 -14 7 -9 -24 -27 5 2 -5 25 6 4 15 15 0 -19 -2 -5 3 7 4 -4 -3 16 21
-21 -5 -12 10 29 -4 -6 25 -11 -18 -23 19 9 -25 11 27 2 18 -13 12 1 39 22 12 13 -11 0 36 -9 4 -35 -12
-1 11 -42 -5 13 -36 -16 43 -5 1 -31 32 21 -14 -15 -1 15 1 -32 34 -37 52 -9 -16 -26 16 -15 5 -6 23 25 -15
-7 32 -31 3 14 -25 -28 40 -17 10 -18 -10 -12 -14 -15 -3 56 9 -7 4 -36 65 -32 -4 -28 37 -42 -4 9 6 50 2
-13 35 -14 -12 -10 2 -44 3 -25 26 5 -13 -6 13 -27 -6 67 10 18 3 -23 27 -20 -9 -29 57 -22 -19 -4 0 22 39
-28 30 -18 -3 31 11 -30 22 -56 31 -16 -3 -5 5 -8 -7 58 -12 2 14 -18 55 -4 -30 -48 58 -26 8 -3 -3 41 22
-45 35 -19 -20 7 12 -4 7 -69 58 -3 15 7 -2 -28 5 66 -2 42 16 -22 55 -3 -47 -56 38 -45 22 16 -6 59 15
-38 46 -4 -2 1 30 -11 9 -56 36 -1 5 7 6 -41 3 25 -23 27 18 -14 66 -3 -9 -49 36 -43 -2 12 -24 18 20
-34 55 1 0 -4 23 -16 14 -42 11 -12 -3 4 -10 -46 -9 28 -8 35 17 20 49 -9 3 -50 0 -40 -5 -14 -12 1 19
-34 36 -1 10 10 32 -6 26 -25 42 -4 13 4 4 -36 -8 25 -4 8 26 11 49 -2 -3 -44 -12 -51 16 -1 1 -5 20
-12 13 -17 -12 6 -6 -1 18 -44 51 9 21 10 9 -13 22 37 -13 23 19 15 50 9 -19 -45 -15 -52 -10 21 -12 18 22
-12 35 -19 -3 7 -4 -14 7 -47 35 -6 23 3 1 -26 16 28 4 22 8 21 29 8 2 -64 -6 -40 -13 -3 -8 8 25
-17 32 -10 -2 -2 -19 1 10 -44 9 -24 21 22 26 20 -2 13 -4 36 8 0 22 8 -1 -63 -16 -42 16 -1 20 1 15
-11 33 -10 7 -8 -23 -16 21 -39 0 -4 25 14 10 7 10 19 7 20 2 15 18 26 15 -55 -6 -48 -20 -1 13 -10 17
5 17 30 9 -22 -29 -15 17 -31 -3 -3 31 14 -3 -7 22 22 -7 22 24 28 18 23 10 -66 -26 -46 -33 3 -3 3 25
40 9 47 8 -15 -40 -5 0 -43 1 0 17 -4 13 -2 18 -5 -1 17 38 9 7 26 -2 -73 -16 -53 -26 -9 -8 -1 20
22 1 31 20 -16 -11 -18 3 -63 7 5 15 -32 -6 -7 12 -20 -13 19 26 17 16 16 11 -75 -29 -47 -31 -10 5 3 14
24 6 22 1 -38 -8 -51 8 -59 15 18 21 -20 -7 -41 34 3 -12 31 22 13 18 -5 -27 -66 -17 -45 -45 13 -1 6 22
38 4 11 13 -52 -22 -58 11 -58 4 -4 -3 -41 6 -18 26 18 -8 26 -4 6 19 -1 -5 -46 -24 -5 -18 1 -17 17 13
36 -10 -16 23 -58 -18 -52 16 -45 -10 -26 8 -38 4 -8 53 31 2 8 -2 -15 17 5 25 -11 -30 -9 -4 17 -9 -6 1
6 -34 8 14 -22 -43 -36 -10 -33 1 -10 11 -31 -26 -28 75 50 -5 6 -11 11 35 32 36 -15 -17 -19 6 22 -25 -30 20
-10 -29 5 19 -2 -16 -11 -14 -25 10 0 -17 -21 4 -36 46 31 3 36 7 19 50 21 13 7 -32 6 20 -1 -29 -19 23
6 -12 -19 -7 -20 -31 -16 -24 -17 -12 23 -11 -5 -22 -20 45 41 -52 24 1 31 35 10 4 8 -22 -26 6 8 -28 -24 51
26 1 -11 -13 -4 -7 2 4 0 -7 10 14 0 17 26 -10 7 17 -7 -20 -7 7 -26 5 1 11 2 14 10 -4 16 7
4 0 -13 -16 19 -15 12 -15 17 4 15 12 16 10 8 3 6 17 3 -7 6 -14 12 7 14 -9 15 14 16 -2 -1 -2
-2 -12 -2 -4 -11 5 6 1 -11 -2 6 10 -6 -10 -6 -6 8 -10 2 10 -2 -3 -13 -11 -2 6 1 2 -9 1 6 -8
-7 -4 2 11 4 1 -1 8 9 10 -10 7 6 2 -5 -11 -10 0 -10 4 1 -5 8 12 10 -2 -10 12 -12 10 -1 7
-3 -13 -5 1 7 3 7 11 -1 11 8 0 1 3 -10 -11 6 -12 10 12 -5 12 12 2 8 12 -6 12 11 8 11 7
4 -11 6 -13 -10 9 0 0 11 11 -3 -1 1 -9 10 11 -7 7 8 4 3 -5 -12 -6 6 0 -5 5 5 8 4 -12
-2 5 19 7 -1 11 -3 21 -2 2 -15 3 -26 18 11 12 15 8 16 12 -15 -2 -2 15 -11 -7 -24 23 12 -1 7 -3
-6 8 39 25 -5 22 -19 -12 13 -12 -25 -7 -34 40 3 16 31 37 21 -3 -22 -2 -20 35 -26 6 -20 6 -8 -23 6 -9
8 13 -3 24 -9 13 -11 8 0 -16 -33 -25 -31 29 -14 -13 20 9 9 -13 -21 3 -15 37 -12 10 -43 11 -12 0 6 14
-4 31 -5 27 -29 12 -5 6 -6 -12 -42 -21 -13 51 -8 -1 25 25 -2 -12 -34 11 -13 33 -30 2 -50 6 -14 -10 8 -5
-43 47 -4 33 -10 23 -32 54 -21 -7 -35 15 15 47 17 -1 35 27 9 -2 -46 17 -29 7 -53 -24 -70 35 0 38 23 -14
-23 52 4 14 -23 26 -51 61 -39 -1 -18 42 15 28 27 14 28 37 15 -17 -40 31 -35 3 -41 -17 -54 29 6 48 22 -36
-12 29 5 9 -19 4 -59 41 -59 -1 -22 -3 -15 6 37 42 26 -22 10 -3 -39 69 -22 31 -34 -24 -62 44 19 53 33 -17
9 18 9 12 -34 -2 -25 41 -47 -3 -9 -1 -15 27 2 40 15 -24 13 -2 -30 81 -13 27 -29 -13 -47 5 45 19 45 -6
-19 22 19 9 -15 -1 -14 21 -18 11 1 5 -18 24 21 39 11 16 12 5 -13 68 -13 2 -19 -19 -49 -9 35 16 20 19
9 -3 15 24 -45 4 -20 26 -15 -10 -12 -4 -3 23 23 39 42 16 9 -2 -8 71 14 0 -65 -10 -64 9 36 17 19 25
10 37 9 4 -46 -11 -35 47 -45 8 -23 11 -8 24 6 35 48 14 7 12 -21 79 -1 1 -79 5 -69 -4 35 52 20 29
-17 41 27 12 -50 -10 -64 74 -60 -6 -49 15 -12 36 33 36 21 0 10 5 -45 69 -22 10 -99 -24 -85 10 47 50 51 0
-22 5 7 -13 -40 0 -27 42 -62 28 -30 27 -6 11 7 38 19 -7 12 31 -31 81 -8 17 -56 -31 -23 13 9 33 15 -10
4 18 38 6 -51 -12 -42 60 -45 21 -6 -7 0 3 5 40 31 -27 7 21 -34 112 -19 -2 -54 -27 -64 -2 23 31 36 7
6 42 34 -3 -57 -14 -32 39 -52 19 10 -8 -5 19 24 24 34 -31 1 9 -32 80 -13 -9 -63 -17 -58 -16 11 22 49 -6
0 28 42 19 -66 -21 -33 47 -57 7 1 6 -23 -1 16 34 26 -35 5 12 -16 72 -14 -17 -74 -22 -45 -11 1 28 27 8
24 13 0 -23 -80 2 -40 41 -39 35 -3 44 -31 -8 2 55 3 -32 -46 19 -25 86 10 8 -74 -22 -52 -2 19 24 21 -15
40 20 -2 21 -71 -5 -43 38 -60 7 -29 -20 -28 34 13 64 29 -18 14 4 -40 91 -14 -7 -73 -42 -55 11 3 20 24 3
33 45 -5 26 -34 6 -53 34 -44 16 -44 -13 -40 0 33 33 13 1 27 10 -32 70 -15 15 -17 -16 -13 25 -21 29 35 4
17 37 -20 -14 -3 -15 -41 36 -38 27 -43 -9 -24 -28 9 40 -1 -30 -13 9 -35 45 12 17 -3 3 -29 5 -13 36 10 -19
17 35 -14 18 -16 -10 -16 12 -20 -19 0 17 0 11 17 18 39 17 1 -4 -19 -10 -2 23 -5 -14 -16 1 6 30 27 2
7 12 -2 16 -25 13 -17 22 -2 4 2 -6 -20 20 -6 15 6 3 -3 7 -16 7 -9 -13 1 -15 -12 1 -3 12 -4 20
-11 11 -12 -14 -5 -7 -6 17 -5 6 -4 9 5 -13 -1 0 -3 -4 2 -3 -7 14 16 -1 -9 -3 -1 -3 -13 4 -13 -5
-11 8 11 -3 -10 6 0 7 -12 6 1 -2 11 12 12 6 0 -9 -10 -9 -12 -8 -3 -11 7 7 11 -5 -10 6 -7 6
12 7 4 11 4 7 10 -9 -7 8 -2 -3 12 7 -7 -8 -4 9 10 10 -12 -2 -1 -3 -5 5 12 -11 11 12 -12 -4
-2 -11 -4 8 10 -6 10 1 5 12 -12 10 -11 7 9 -12 11 2 10 6 4 5 -8 3 -4 0 -11 -6 2 9 -8 11
-12 -2 -9 12 -9 12 -10 2 11 10 -9 -9 0 -1 -11 -2 3 1 5 8 -3 4 -10 3 12 0 -2 -8 1 10 3 13
6 -10 9 -9 -2 -6 9 6 -7 -3 12 12 1 -11 8 2 9 -6 8 3 -10 -1 8 0 -10 -2 -10 12 1 -3 5 6
-7 -3 -8 -10 11 -1 -6 -12 9 -1 -6 6 -4 11 -7 1 -11 7 -1 10 12 10 11 -2 0 1 7 -1 12 -7 -7 5
-3 16 -14 -8 4 -22 2 9 7 5 -3 19 8 -24 -17 11 -3 -7 -8 -11 5 4 2 12 4 2 -8 13 13 11 -8 -9
2 10 -9 -16 4 -17 5 4 -8 2 8 27 11 -17 -10 -2 -14 -8 -23 13 -8 10 32 15 10 -11 7 0 -7 20 -19 7
1 32 -9 2 -10 20 -4 26 0 -16 -1 41 14 3 3 14 11 18 12 -3 -27 34 -14 17 -21 -20 -14 17 9 38 11 -12
2 30 -6 21 -1 6 -7 17 4 5 5 64 -5 22 6 18 11 14 6 16 -33 30 -10 -20 -9 -7 -18 19 3 25 5 -4
-10 39 7 1 -4 3 -24 29 -20 12 -8 46 11 0 14 7 8 -16 -5 9 -44 42 -10 -27 -6 -18 -10 8 12 26 10 -20
-50 39 -15 -9 6 7 -14 38 -10 18 -1 36 3 11 26 29 -6 -8 -1 14 -39 35 -3 14 -14 -15 -26 43 1 46 21 -16
-37 2 -14 -18 8 17 -15 41 -26 -16 6 63 18 16 24 35 -18 12 -9 6 -19 47 5 13 -19 6 -32 30 9 34 30 -6
-26 -5 9 6 17 8 -13 10 -18 -14 24 25 -6 34 3 28 -16 19 19 -6 -3 54 9 27 -12 -11 -38 10 16 8 24 -8
-3 -3 21 -5 16 0 -15 -1 -25 2 4 30 16 26 18 39 6 24 16 -3 -12 35 -9 0 -26 -16 -39 13 19 23 37 -12
-24 1 -22 -41 -5 -24 -11 51 -21 40 9 86 42 -7 18 48 -8 1 -29 0 -30 53 46 32 -21 -13 -38 1 32 35 13 -28
-28 74 13 0 -29 -16 -39 73 -28 -7 -37 58 -20 7 63 46 -2 -6 -22 -14 -53 46 -1 11 -66 -42 -55 33 23 77 55 -39
-44 60 14 -8 4 -17 -35 34 -28 -1 -26 71 -15 0 46 3 13 -15 3 1 -18 31 -3 8 -30 -38 -42 21 10 41 58 -49
-24 69 6 -7 -4 -7 -35 29 -23 27 -3 86 16 -9 53 16 -1 -3 -15 -12 -27 26 23 14 -24 -4 -28 6 -10 33 57 -22
-26 57 -11 -20 1 -7 -17 70 -29 44 -23 66 44 -13 35 34 -7 -22 -23 -11 -44 64 29 32 -19 -1 -7 28 -26 79 38 -28
-11 58 4 21 -26 13 -19 47 -12 19 -18 17 6 3 42 19 0 3 -4 12 -59 23 -4 40 -34 -14 -14 33 -3 47 44 -16
0 40 10 9 -16 -3 -10 34 -2 2 -31 31 3 17 34 16 -11 2 -18 7 -42 29 0 12 -22 -22 -18 17 7 48 42 -21
36 44 3 5 -9 -2 -28 31 -13 24 -8 -7 -16 -5 43 5 -24 5 3 14 -38 11 4 23 -13 5 -3 41 10 27 39 2
37 47 8 -15 -9 -20 -21 42 -12 29 -18 -28 -9 -16 23 -11 -22 -18 -10 5 -29 15 23 43 19 21 0 28 -6 41 38 -11
18 41 -5 -30 -4 -17 -18 39 -30 26 -23 -24 -6 -22 7 -5 -16 -23 0 -6 -40 22 22 24 19 19 -6 20 -15 24 37 -17
0 14 10 -12 11 -28 -21 14 4 1 -6 -4 13 -26 -5 8 -3 -21 -4 -7 -10 9 30 19 8 23 4 -6 -8 22 -4 6
-7 -11 -12 3 11 -1 12 -5 7 9 -8 -12 -5 11 0 -6 -4 -11 8 9 7 -7 -6 -1 -11 9 -10 1 4 -9 -10 12
4 7 6 3 -9 -12 7 -4 -12 6 -9 -4 3 -5 12 -12 -11 -5 9 -10 5 -12 5 8 -8 7 -3 1 -9 0 11 -6
2 12 10 1 11 7 -6 -11 -6 -1 -6 -4 8 -2 6 6 -10 -1 -5 8 6 -3 -4 5 -1 7 -7 3 -7 2 -6 1
10 13 -8 -1 -2 -7 0 -9 0 -9 -6 4 4 9 6 0 8 8 12 -5 -4 12 3 8 3 12 -5 -3 10 -2 -1 2
